/* Generated by Edge Impulse
 *
 * Permission is hereby granted, free of charge, to any person obtaining a copy
 * of this software and associated documentation files (the "Software"), to deal
 * in the Software without restriction, including without limitation the rights
 * to use, copy, modify, merge, publish, distribute, sublicense, and/or sell
 * copies of the Software, and to permit persons to whom the Software is
 * furnished to do so, subject to the following conditions:
 *
 * The above copyright notice and this permission notice shall be included in
 * all copies or substantial portions of the Software.
 *
 * THE SOFTWARE IS PROVIDED "AS IS", WITHOUT WARRANTY OF ANY KIND, EXPRESS OR
 * IMPLIED, INCLUDING BUT NOT LIMITED TO THE WARRANTIES OF MERCHANTABILITY,
 * FITNESS FOR A PARTICULAR PURPOSE AND NONINFRINGEMENT. IN NO EVENT SHALL THE
 * AUTHORS OR COPYRIGHT HOLDERS BE LIABLE FOR ANY CLAIM, DAMAGES OR OTHER
 * LIABILITY, WHETHER IN AN ACTION OF CONTRACT, TORT OR OTHERWISE, ARISING FROM,
 * OUT OF OR IN CONNECTION WITH THE SOFTWARE OR THE USE OR OTHER DEALINGS IN THE
 * SOFTWARE.
 */
// Generated on: 28.12.2022 23:36:38

#include <stdio.h>
#include <stdlib.h>
#include "edge-impulse-sdk/tensorflow/lite/c/builtin_op_data.h"
#include "edge-impulse-sdk/tensorflow/lite/c/common.h"
#include "edge-impulse-sdk/tensorflow/lite/micro/micro_mutable_op_resolver.h"
#include "edge-impulse-sdk/porting/ei_classifier_porting.h"

#if EI_CLASSIFIER_PRINT_STATE
#if defined(__cplusplus) && EI_C_LINKAGE == 1
extern "C" {
    extern void ei_printf(const char *format, ...);
}
#else
extern void ei_printf(const char *format, ...);
#endif
#endif

#if defined __GNUC__
#define ALIGN(X) __attribute__((aligned(X)))
#elif defined _MSC_VER
#define ALIGN(X) __declspec(align(X))
#elif defined __TASKING__
#define ALIGN(X) __align(X)
#endif

#ifndef EI_MAX_SCRATCH_BUFFER_COUNT
#define EI_MAX_SCRATCH_BUFFER_COUNT 4
#endif // EI_MAX_SCRATCH_BUFFER_COUNT

#ifndef EI_MAX_OVERFLOW_BUFFER_COUNT
#define EI_MAX_OVERFLOW_BUFFER_COUNT 10
#endif // EI_MAX_OVERFLOW_BUFFER_COUNT

using namespace tflite;
using namespace tflite::ops;
using namespace tflite::ops::micro;

namespace {

constexpr int kTensorArenaSize = 1920;

#if defined(EI_CLASSIFIER_ALLOCATION_STATIC)
uint8_t tensor_arena[kTensorArenaSize] ALIGN(16);
#elif defined(EI_CLASSIFIER_ALLOCATION_STATIC_HIMAX)
#pragma Bss(".tensor_arena")
uint8_t tensor_arena[kTensorArenaSize] ALIGN(16);
#pragma Bss()
#elif defined(EI_CLASSIFIER_ALLOCATION_STATIC_HIMAX_GNU)
uint8_t tensor_arena[kTensorArenaSize] ALIGN(16) __attribute__((section(".tensor_arena")));
#else
#define EI_CLASSIFIER_ALLOCATION_HEAP 1
uint8_t* tensor_arena = NULL;
#endif

static uint8_t* tensor_boundary;
static uint8_t* current_location;

template <int SZ, class T> struct TfArray {
  int sz; T elem[SZ];
};
enum used_operators_e {
  OP_FULLY_CONNECTED, OP_SOFTMAX,  OP_LAST
};
struct TensorInfo_t { // subset of TfLiteTensor used for initialization from constant memory
  TfLiteAllocationType allocation_type;
  void* data;
  TfLiteIntArray* dims;
  size_t bytes;
};
struct NodeInfo_t { // subset of TfLiteNode used for initialization from constant memory
  struct TfLiteIntArray* inputs;
  struct TfLiteIntArray* outputs;
  void* builtin_data;
  used_operators_e used_op_index;
};

TfLiteContext ctx{};
TfLiteTensor tflTensors[11];
TfLiteEvalTensor tflEvalTensors[11];
TfLiteRegistration registrations[OP_LAST];
TfLiteNode tflNodes[4];

const TfArray<2, int> tensor_dimension0 = { 2, { 1,400 } };
const ALIGN(8) float tensor_data1[3] = { -0.0037734608631581068, 0.017239883542060852, -0.012637607753276825, };
const TfArray<1, int> tensor_dimension1 = { 1, { 3 } };
const ALIGN(16) float tensor_data2[16] = { -0.01087812427431345, 0.0050727282650768757, 0.01428104005753994, -0.013318269513547421, -0.011642757803201675, -0.014535906724631786, -0.023385532200336456, 0.0023133407812565565, -0.011510127224028111, 0.039296552538871765, -0.013189936988055706, -0.0047411606647074223, -0.0018337365472689271, 0.0084494296461343765, -0.024303648620843887, 0.035116240382194519, };
const TfArray<1, int> tensor_dimension2 = { 1, { 16 } };
const ALIGN(16) float tensor_data3[32] = { 0.008871058002114296, 0.024601923301815987, 0.0073515297845005989, 0.011015166528522968, -0.009339524433016777, -0.0086473831906914711, -0.009265262633562088, -0.01610976830124855, -0.011204219423234463, -0.0059092319570481777, 0.0086806481704115868, -0.020566795021295547, -0.010716652497649193, -0.026134159415960312, -0.014464469626545906, -0.011752845719456673, -0.0068896971642971039, -0.013730728067457676, -0.029242031276226044, 0.0060193613171577454, 0.030353700742125511, 0.0034630659501999617, 0.00016849403618834913, -0.011348419822752476, 0.0084195602685213089, 0.034043177962303162, 0.028642376884818077, -0.007294265553355217, 0.0028985165990889072, 0.019162137061357498, 0.0060941539704799652, 0.00024065247271209955, };
const TfArray<1, int> tensor_dimension3 = { 1, { 32 } };
const ALIGN(16) float tensor_data4[32*400] = { 
  -0.078174777328968048, 0.097902953624725342, 0.077108226716518402, -0.015592589043080807, -0.039144087582826614, -0.1005684956908226, 0.10599690675735474, 0.015006109140813351, -0.056348878890275955, -0.10765587538480759, 0.11668098717927933, -0.0064645498059689999, 0.022071231156587601, -0.04420924186706543, -0.013045147992670536, -0.069933541119098663, -0.0051355506293475628, 0.051471423357725143, 0.10970940440893173, -0.045593585819005966, 0.01831841841340065, 0.090330898761749268, -0.051061607897281647, -0.015323051251471043, -0.10601215809583664, 0.071979433298110962, 0.019583361223340034, -0.036672282963991165, 0.043867133557796478, 0.090430460870265961, -0.057736583054065704, 0.04054594412446022, -0.1124919205904007, -0.026499627158045769, -0.04102272167801857, 0.0081293974071741104, -0.0039026017766445875, 0.024914499372243881, -0.058149244636297226, -0.068694405257701874, -0.05971381813287735, 0.066219724714756012, -0.082015909254550934, -0.00021477854170370847, 0.038780312985181808, -0.016316056251525879, -0.016549814492464066, 0.037433847784996033, 0.087343171238899231, 0.090657107532024384, 0.072040192782878876, -0.012022783979773521, -0.073527820408344269, 0.034886199980974197, 0.04518672451376915, -0.024343520402908325, -0.039840638637542725, 0.041412722319364548, 0.094022311270236969, 0.0015702132368460298, 0.017124442383646965, 0.05854078009724617, 0.0085157556459307671, 0.11131031066179276, 0.043353024870157242, -0.025619653984904289, 0.080255486071109772, -0.044188234955072403, 0.039915505796670914, -0.015175320208072662, -0.063905477523803711, -0.063226595520973206, 0.014864715747535229, -0.10961253196001053, 0.06106867641210556, 0.083015903830528259, -0.013776702806353569, -0.025942768901586533, 0.046456478536128998, -0.077041305601596832, 0.094745658338069916, -0.0095615088939666748, 0.033633727580308914, -0.037104610353708267, 0.047689367085695267, -0.030848909169435501, 0.08888215571641922, 0.041829433292150497, 0.039233136922121048, -0.00049320980906486511, 0.048370428383350372, -0.012113998644053936, 0.077607661485671997, 0.022402646020054817, 0.095511160790920258, -0.015888545662164688, 0.056108623743057251, -0.051922563463449478, -0.013595051132142544, -0.0030227235984057188, -0.017162391915917397, 0.061364561319351196, -0.097633518278598785, -0.013309883885085583, -0.039534643292427063, -0.085525676608085632, 0.062527783215045929, 0.11263900995254517, 0.016147607937455177, -0.0056536896154284477, 0.022698512300848961, 0.090683981776237488, -0.10529650747776031, -0.056945595890283585, 0.063705846667289734, -0.007030146662145853, 0.051296412944793701, 0.11849933117628098, 0.041137456893920898, -0.042566947638988495, -0.072896584868431091, 0.05683806911110878, 0.074600562453269958, -0.013605400919914246, 0.11803755164146423, -0.015208031982183456, 0.12595579028129578, -0.0078574009239673615, -0.024445619434118271, -0.0074671218171715736, -0.047473359853029251, 0.096341274678707123, 0.097651354968547821, -0.10727646201848984, -0.00058714981423690915, -0.052542056888341904, -0.11709501594305038, 0.089369043707847595, 0.10569190233945847, -0.007844170555472374, 0.049101918935775757, 0.042330436408519745, -0.059892628341913223, -0.068181179463863373, 0.091416016221046448, 0.048919878900051117, -0.084773242473602295, 0.030114337801933289, -0.055868964642286301, -0.075908631086349487, -0.056672818958759308, 0.10039059072732925, 0.081444993615150452, 0.076113536953926086, 0.043139278888702393, 0.012592350132763386, 0.023985931649804115, 0.023798592388629913, -0.037234485149383545, 0.051212489604949951, 0.0069728940725326538, 0.10195127874612808, -0.11105342209339142, -0.046164020895957947, -0.099494978785514832, -0.0052113952115178108, 0.089286074042320251, 0.049823489040136337, -0.05934268981218338, 0.037058822810649872, -0.095919765532016754, -0.031322773545980453, 0.06383243203163147, -0.047040179371833801, -0.068342506885528564, -0.084603562951087952, -0.025297345593571663, 0.083471544086933136, -0.047478135675191879, 0.017081862315535545, 0.05594881996512413, -0.020536893978714943, -0.068179666996002197, 0.063283555209636688, 0.061097893863916397, 0.023376358672976494, -0.10833093523979187, -0.020160367712378502, -0.076879672706127167, 0.052124600857496262, -0.084082260727882385, 0.091848231852054596, -0.028396494686603546, -0.037593621760606766, -0.015500077977776527, 0.10198439657688141, -0.095819517970085144, 0.090398073196411133, 0.03888837993144989, 0.06158161535859108, 0.095092087984085083, -0.10606122016906738, -0.096451476216316223, -0.051458440721035004, 0.070759490132331848, -0.050107441842556, -0.077966503798961639, -0.10505163669586182, -0.032428745180368423, -0.041974775493144989, 0.084867119789123535, 0.047929886728525162, 0.032158307731151581, -0.096480719745159149, 0.012205925770103931, -0.098425671458244324, 0.031056957319378853, -0.11984279751777649, 0.063838720321655273, 0.063323348760604858, -0.063624739646911621, 0.023228339850902557, -0.033485330641269684, 0.021265540271997452, -0.051532439887523651, 0.022836139425635338, -0.056314107030630112, 0.055719733238220215, 0.045769065618515015, -0.028886403888463974, -0.094741620123386383, -0.094711318612098694, 0.060593679547309875, -0.08836742490530014, -0.011775515973567963, -0.11303199082612991, -0.013455676846206188, -0.055277649313211441, 0.017795633524656296, 0.019948927685618401, 0.047470755875110626, -0.04710228368639946, -0.10981869697570801, 0.029268892481923103, 0.005428241565823555, 0.062012434005737305, -0.11961112171411514, -0.098285503685474396, 0.047156978398561478, 0.044047381728887558, -0.065785303711891174, 0.078320451080799103, -0.044630996882915497, -0.013758236542344093, -0.060700692236423492, -0.034700889140367508, 0.027998056262731552, -0.009525008499622345, 0.088145658373832703, 0.10688943415880203, -0.033023599535226822, 0.00074128463165834546, -0.069358691573143005, 0.080882877111434937, 0.0088407974690198898, -0.057438872754573822, -0.10177819430828094, -0.036245763301849365, -0.11612430214881897, -0.034207504242658615, -0.078474923968315125, 0.089866116642951965, 0.053425658494234085, 0.071508824825286865, -0.039195969700813293, -0.0108377356082201, 0.071897730231285095, 0.046051543205976486, -0.098668687045574188, 0.058694858103990555, -0.11743268370628357, 0.079545773565769196, -0.0028886226937174797, -0.061728380620479584, -0.080807536840438843, -0.050430703908205032, -0.052597984671592712, -0.046194948256015778, -0.117375448346138, -0.044673260301351547, -0.021592868492007256, 0.07825818657875061, 0.038591563701629639, -0.064008943736553192, -0.018589725717902184, -0.05378606915473938, -0.053297646343708038, -0.028949566185474396, -0.016880741342902184, -0.11459594219923019, 0.031663760542869568, 0.057390015572309494, -0.040252517908811569, 0.012129945680499077, -0.10715988278388977, 0.021168556064367294, 0.022993128746747971, -0.063774190843105316, -0.0087896622717380524, -0.01073427964001894, 0.020435100421309471, 0.082633033394813538, 0.10162737965583801, -0.070215456187725067, 0.10610248893499374, -0.094026736915111542, 0.084611311554908752, 0.034198932349681854, 0.020057410001754761, -0.097595684230327606, 0.087673701345920563, 0.0034361353609710932, -0.093664065003395081, 0.09529789537191391, 0.060741733759641647, 0.090726576745510101, -0.094734415411949158, 0.0055646575056016445, 0.054192826151847839, -0.00053156056674197316, -0.062240641564130783, 0.036977946758270264, -0.049372121691703796, 0.044595222920179367, 0.035007786005735397, -0.014850868843495846, -0.0090726781636476517, -0.0021344083361327648, -0.1224222257733345, 0.034993186593055725, 0.030628582462668419, 0.071641251444816589, 0.055889919400215149, 0.0076951812952756882, -0.0901297926902771, 0.089579261839389801, -0.10768614709377289, -0.020325016230344772, -0.059497050940990448, 0.044990163296461105, 0.093151576817035675, -0.092318154871463776, -0.03786487877368927, 0.10300193727016449, -0.072532758116722107, -0.0017859485233202577, -0.083366647362709045, 0.10861694067716599, -0.084541358053684235, -0.0011411031009629369, 0.0443115234375, -0.023999880999326706, 0.11065825819969177, -0.030387615785002708, -0.057372052222490311, -0.0034530868288129568, -0.04794730618596077, 0.026354998350143433, 0.067968390882015228, -0.074033059179782867, 0.091568402945995331, -0.012820118106901646, 0.022212781012058258, 0.087645679712295532, 0.053165238350629807, -0.096134543418884277, 0.034726634621620178, -0.044205110520124435, -0.098547093570232391, 0.079635433852672577, 0.11361686885356903, -0.070003725588321686, 0.025029417127370834, -0.071558266878128052, -0.0073046823963522911, -0.081715166568756104, -0.04190627858042717, 0.057666920125484467, 0.059838231652975082, 0.089917100965976715, -0.064333036541938782, -0.057463105767965317, -0.060471735894680023, 6.0433427279349416e-05, -0.053836315870285034, -0.094962678849697113, -0.040791232138872147, -0.028552716597914696, 0.085934393107891083, -0.041298981755971909, 
  0.028057748451828957, 0.009681379422545433, 0.0068859979510307312, 0.12770214676856995, 0.0016909711994230747, -0.087227605283260345, 0.092891015112400055, -0.065206035971641541, 0.031997654587030411, 0.0099415984004735947, -0.044241290539503098, -0.055083084851503372, 0.10487367212772369, -0.10001798719167709, -0.0013861489715054631, 0.043925806879997253, 0.09313414990901947, -0.047600578516721725, 0.075201570987701416, -0.084374666213989258, -0.10564015805721283, 0.062673360109329224, 0.079136960208415985, 0.11066141724586487, 0.00077770225470885634, -0.052500542253255844, -0.0020989757031202316, 0.069428108632564545, 0.1172751784324646, 0.083563894033432007, -0.014204317703843117, 0.11500893533229828, 0.010719168931245804, -0.047200173139572144, 0.088641650974750519, -0.097754858434200287, 0.11410021036863327, 0.018776796758174896, 0.095256127417087555, 0.11569856852293015, -0.032664358615875244, 0.081367082893848419, 0.052276000380516052, -0.0060057658702135086, 0.0186330396682024, -0.024360226467251778, 0.047987338155508041, -0.10065566003322601, -0.090664513409137726, 0.055184520781040192, 0.095335088670253754, -0.05453336238861084, 0.0095854243263602257, 0.088634230196475983, -0.023821135982871056, -0.0355403833091259, 0.11991026997566223, 0.038118008524179459, -0.087696954607963562, -0.055745583027601242, 0.011099454015493393, 0.077524483203887939, 0.053479142487049103, 0.041315808892250061, 0.028057724237442017, -0.061127450317144394, -0.060715187340974808, -0.076300710439682007, -0.023098036646842957, -0.075880974531173706, 0.059379477053880692, 0.017022326588630676, -0.061003178358078003, 0.027088433504104614, -0.068906106054782867, 0.05980808287858963, 0.022408436983823776, 0.086429625749588013, -0.040820896625518799, 0.041292384266853333, 0.07492559403181076, -0.023519063368439674, 0.083615466952323914, 0.11951875686645508, -0.081511259078979492, 0.057779271155595779, 0.015344000421464443, 0.033488266170024872, 0.11601637303829193, -0.096586853265762329, -0.085129521787166595, 0.0089350827038288116, -0.067731849849224091, -0.012326445430517197, 0.064282163977622986, -0.060747694224119186, -0.10138238966464996, -0.09024105966091156, 0.0067633646540343761, 0.026734188199043274, 0.0047318837605416775, -0.047274559736251831, -0.10719937831163406, 0.077397368848323822, 0.097766481339931488, 0.05161738395690918, 0.046946566551923752, 0.098361365497112274, -0.1017162948846817, 0.012694118544459343, -0.051257319748401642, -0.039108689874410629, 0.11487249284982681, -0.013927257619798183, -0.057874813675880432, -0.021399950608611107, 0.071133501827716827, -0.0065405028872191906, 0.097062975168228149, -0.050399720668792725, -0.074766673147678375, -0.090581826865673065, 0.0023793971631675959, -0.049150820821523666, -0.013100096955895424, -0.015432680957019329, 0.0013733416562899947, -0.059571865946054459, -0.094224750995635986, -0.1031162366271019, -0.047513145953416824, -0.10199815779924393, -0.022138994187116623, 0.084360294044017792, 0.048781882971525192, 0.089276343584060669, -0.06531592458486557, 0.12367851287126541, 0.060915015637874603, 0.11882305890321732, -0.027568446472287178, -0.020691493526101112, -0.00083333678776398301, 0.10329695791006088, 0.020940676331520081, -0.071513749659061432, 0.05037834495306015, 0.024237632751464844, 0.055852055549621582, -0.030607542023062706, 0.062143824994564056, -0.090027987957000732, -0.061556242406368256, 0.0091194408014416695, -0.094212047755718231, -0.044623628258705139, -0.053223993629217148, 0.11430126428604126, 0.0048686899244785309, -0.024053532630205154, -0.070551827549934387, -0.0081909429281949997, -0.034609321504831314, -0.054434046149253845, -0.074840955436229706, 0.05530586838722229, 0.061761081218719482, 0.10342065989971161, -0.029635177925229073, -0.099849611520767212, -0.069814562797546387, 0.0922393798828125, -0.084849134087562561, -0.034329172223806381, 0.11171949654817581, 0.070678062736988068, -0.060684945434331894, -0.062151655554771423, -0.00025556987384334207, 0.054497513920068741, 0.024306846782565117, 0.078015103936195374, -0.0060628606006503105, -0.017400963231921196, 0.090716145932674408, -0.099086515605449677, -0.019004127010703087, 0.12376753240823746, 0.080884285271167755, 0.11925798654556274, 0.035946041345596313, -0.085983671247959137, 0.093987360596656799, -0.082228131592273712, 0.060838662087917328, 0.030231192708015442, 0.084760479629039764, -0.099708661437034607, -0.017897170037031174, -0.090067736804485321, 0.062631063163280487, 0.011736536398530006, -0.00073048035847023129, -0.038007184863090515, -0.013899181969463825, -0.029903106391429901, -0.076186247169971466, -0.020855382084846497, -0.016939751803874969, -0.048505425453186035, -0.10136895626783371, -0.012714640237390995, 0.031134448945522308, -0.015707751736044884, -0.017854603007435799, 0.07802245020866394, -0.066879555583000183, 0.0069217653945088387, -0.02817230112850666, 0.042700834572315216, 0.11871858686208725, 0.10550330579280853, 0.039994332939386368, 0.041218545287847519, 0.004835556261241436, 0.045292206108570099, -0.10667853057384491, -0.065852746367454529, -0.0612616166472435, 0.022742519155144691, 0.042941167950630188, 0.099967256188392639, 0.11636519432067871, -0.077322438359260559, 0.055717341601848602, 0.00032445488614030182, -0.072597555816173553, -0.096766963601112366, -0.021997205913066864, -0.074470601975917816, -0.087064988911151886, 0.14295667409896851, 0.13668815791606903, 0.097863636910915375, 0.05594843253493309, -0.045042335987091064, 0.0017241828609257936, -0.088198930025100708, -0.017430674284696579, 0.022773748263716698, -0.0034565392415970564, -0.049742411822080612, 0.10673241317272186, -0.071299321949481964, 0.024625351652503014, 0.023105038329958916, 0.096026688814163208, -0.028369616717100143, 0.056091532111167908, -0.0091447858139872551, 0.045171461999416351, 0.056741137057542801, 0.0041095493361353874, -0.019779853522777557, 0.10302837193012238, 0.05105239525437355, -0.084130391478538513, 0.069114282727241516, -0.01310443039983511, 0.10516192018985748, -0.061042416840791702, 0.1214577928185463, -0.063837260007858276, 0.10442375391721725, 0.041648343205451965, 0.089953534305095673, 0.073193423449993134, 0.018153578042984009, 0.088326208293437958, 0.087216794490814209, -0.066899999976158142, -0.041528806090354919, -0.015400786884129047, 0.12290682643651962, -0.01094459742307663, 0.094492137432098389, -0.025441285222768784, -0.1103140115737915, 0.087796017527580261, -0.08551865816116333, -0.10125429183244705, -0.078582800924777985, -0.080475956201553345, -0.026369256898760796, 0.10004644095897675, -0.041247721761465073, 0.036739632487297058, 0.11400105804204941, -0.047552287578582764, -0.014684940688312054, 0.026406202465295792, -0.059467479586601257, -0.031693965196609497, 0.066553987562656403, -0.062468398362398148, 0.085768379271030426, 0.10473649948835373, -0.04399225115776062, -0.037981044501066208, 0.073226876556873322, -0.0049648298881947994, 0.018051356077194214, 0.041503053158521652, 0.026350952684879303, -0.049063906073570251, 0.10962971299886703, 0.0080690179020166397, 0.045587219297885895, -0.021459700539708138, 0.11284694820642471, 0.11366000771522522, 0.012326633557677269, 0.087354294955730438, 0.10134487599134445, 0.016488207504153252, 0.091764412820339203, 0.031936287879943848, -0.017331883311271667, -0.029317770153284073, 0.10768219828605652, 0.092466138303279877, -0.019968315958976746, -0.060751244425773621, 0.086454428732395172, 0.12422505021095276, 0.020952321588993073, -0.022906070575118065, 0.059712912887334824, -0.055197957903146744, -0.086872279644012451, -0.051785748451948166, -0.093035168945789337, 0.031020596623420715, -0.061006311327219009, 0.033279150724411011, 0.082645058631896973, 0.015955172479152679, 0.12324154376983643, -0.110333152115345, -0.027878573164343834, -0.015680748969316483, -0.09715377539396286, -0.092125609517097473, -0.1047901064157486, -0.032315034419298172, 0.030733384191989899, -0.079991094768047333, 0.028833936899900436, 0.063185006380081177, 0.059207458049058914, -0.0048456150107085705, -0.10845346748828888, -0.10169798880815506, -0.012914916500449181, -0.10553090274333954, 0.057249456644058228, 0.040893048048019409, 0.0014831048902124166, 0.069045804440975189, -0.045312203466892242, 0.049589507281780243, 0.12356532365083694, 0.025362452492117882, -0.10510017722845078, -0.048649005591869354, 0.028326934203505516, 0.092289857566356659, 0.060751345008611679, -0.071915410459041595, -0.014985931105911732, 0.050593391060829163, -0.069684930145740509, -0.091467678546905518, -0.10509661585092545, 0.027414318174123764, 0.11323271691799164, -0.052277803421020508, 0.029809335246682167, -0.03639572486281395, 0.014025209471583366, -0.076017498970031738, -0.0886344313621521, -0.082617156207561493, 0.0036719033960253, -0.072007454931735992, 0.081651389598846436, -0.046801842749118805, -0.015968717634677887, -0.01377292163670063, -0.0040299072861671448, 
  0.0072731794789433479, -0.10789905488491058, -0.052934374660253525, 0.077864080667495728, 0.045299652963876724, -0.065152093768119812, -0.035347845405340195, -0.079861149191856384, 0.094587013125419617, -0.0054877954535186291, -0.071760177612304688, -0.044887632131576538, -0.033018901944160461, 0.081387437880039215, 0.081621386110782623, -0.043883081525564194, 0.01235613226890564, 0.026372319087386131, 0.030477376654744148, 0.11956783384084702, -0.094499006867408752, 0.08420533686876297, -0.041803792119026184, 0.057315316051244736, -0.06966853141784668, 0.10078290104866028, -0.084036454558372498, -0.054958406835794449, 0.11809724569320679, 0.030478991568088531, 0.12497977912425995, 0.017558582127094269, 0.018913725391030312, -0.075759969651699066, 0.077490866184234619, 0.07824409008026123, 0.019180158153176308, 0.025744358077645302, 0.018826456740498543, 0.075387366116046906, 0.061374928802251816, 0.016698658466339111, -0.027420798316597939, -0.077998146414756775, -0.040475543588399887, -0.03519870713353157, 0.011247435584664345, -0.05672934278845787, -0.058357462286949158, 0.068231530487537384, 0.035057656466960907, -0.1005200520157814, 0.010702249594032764, -0.10566204786300659, 0.069684967398643494, -0.073998264968395233, -0.057487327605485916, -0.0087553756311535835, 0.032150037586688995, 0.031686007976531982, 0.085763618350028992, -0.021268071606755257, 0.10531719774007797, -0.0673694908618927, 0.0083250952884554863, 0.072213374078273773, -0.077025040984153748, -0.097217872738838196, 0.047208316624164581, 0.00014096508675720543, 0.031605251133441925, 0.032682787626981735, 0.075332842767238617, 0.10230609029531479, 0.08432324230670929, 0.12276742607355118, -0.0348329097032547, -0.00010086940892506391, 0.12290894985198975, -0.040337968617677689, -0.08006470650434494, 0.085592485964298248, -0.085066176950931549, -0.036625180393457413, 0.063297778367996216, -0.035632725805044174, 0.045073997229337692, 0.020149679854512215, 0.068757422268390656, -0.024953950196504593, 0.10752178728580475, 0.015697581693530083, 0.043334398418664932, -0.099876552820205688, 0.058934219181537628, -0.066708832979202271, 0.044899489730596542, 0.046848498284816742, -0.088338799774646759, -0.087070740759372711, 0.013649239204823971, -0.05317065492272377, 0.0060958759859204292, -0.040708180516958237, -0.048230227082967758, 0.034435257315635681, 0.060116637498140335, 0.0083750598132610321, 0.08701663464307785, 0.066248327493667603, -0.10565291345119476, 0.064104072749614716, 0.11265671998262405, -0.058361310511827469, -0.058064993470907211, -0.10446319729089737, -0.055675379931926727, -0.081430338323116302, -0.047584205865859985, 0.11757389456033707, 0.042533833533525467, 0.023175850510597229, 0.10558712482452393, -0.062320183962583542, 0.0028330169152468443, 0.10661768913269043, 0.052575353533029556, -0.027735816314816475, 0.069729447364807129, 0.098645798861980438, 0.065645873546600342, 0.043202199041843414, 0.083696946501731873, -0.05836975947022438, -0.092906743288040161, 0.020499084144830704, -0.045496072620153427, -0.060682728886604309, -0.072292089462280273, -0.010069358162581921, -0.011297525838017464, -0.084388509392738342, -0.016350535675883293, -0.040383920073509216, 0.051714766770601273, 0.0068511227145791054, 0.021126341074705124, 0.0043068444356322289, 0.11388524621725082, -0.075811289250850677, 0.0029480501543730497, 0.0035170440096408129, -0.020206894725561142, -0.00039911927888169885, 0.020816219970583916, 0.089081816375255585, -0.075813174247741699, -0.03956352174282074, -0.089116871356964111, -0.10005863755941391, 0.076421454548835754, -0.038842979818582535, -0.11799442023038864, -0.094242393970489502, 0.060151863843202591, -0.023463442921638489, 0.041180621832609177, 0.023312205448746681, -0.041113510727882385, -0.049119874835014343, -0.077150903642177582, 0.10749807953834534, -0.061176855117082596, 0.041599411517381668, 0.013761979527771473, 0.026408694684505463, 0.11760783195495605, 0.0090122632682323456, 0.11808565258979797, -0.064488925039768219, 0.030847243964672089, -0.0048159644939005375, -0.0789051353931427, 0.044477153569459915, 0.072406753897666931, 0.086158432066440582, -0.099816910922527313, 0.069635823369026184, 0.026746693998575211, -0.058677308261394501, 0.0060304412618279457, 0.0084671201184391975, 0.012868331745266914, 0.048407334834337234, 0.023151667788624763, 0.069595880806446075, 0.065742999315261841, 0.046094499528408051, 0.093820773065090179, -0.0054944460280239582, -0.09676477313041687, 0.10333935171365738, -0.025419512763619423, 0.068537600338459015, -0.070277586579322815, 0.10466088354587555, -0.0015111340908333659, 0.099479824304580688, 0.04940374568104744, -0.090801253914833069, -0.041851464658975601, 0.022755108773708344, 0.11842357367277145, 0.12202833592891693, -0.015177092514932156, -0.01989477314054966, 0.045717727392911911, -0.072896577417850494, -0.0036471614148467779, -0.012497793883085251, 0.00056223204592242837, -0.0011771776480600238, -0.056487325578927994, 0.085608862340450287, 0.058604825288057327, 0.069459915161132812, 0.11011407524347305, 0.0029829978011548519, -0.0062466314993798733, 0.074742041528224945, 0.015570426359772682, 0.022251678630709648, 0.021823598071932793, 0.026770778000354767, 0.015592118725180626, 0.0768280029296875, 0.0019993586465716362, -0.019580211490392685, 0.03895236924290657, 0.12188304215669632, 0.12250848859548569, -0.08418717235326767, 0.0046803373843431473, 0.050330255180597305, -0.027667291462421417, 0.10995118319988251, 0.054509662091732025, -0.089670039713382721, -0.032808728516101837, -0.097755849361419678, 0.061449017375707626, -0.028248749673366547, 0.093017943203449249, -0.066069126129150391, -0.10010027140378952, 0.024404676631093025, 0.10367000848054886, 0.025363489985466003, 0.10470598191022873, -0.0084437737241387367, 0.016438014805316925, 0.11483732610940933, 0.066632486879825592, -0.044404465705156326, 0.026270009577274323, 0.022820306941866875, -0.10023216158151627, 0.093251690268516541, -0.044600393623113632, -0.071679815649986267, 0.054379232227802277, -0.087354466319084167, 0.11422892659902573, -0.057675052434206009, 0.045613642781972885, 0.080317355692386627, 0.077406570315361023, -0.083533130586147308, 0.059198271483182907, -0.063841275870800018, 0.11402282118797302, 0.032916881144046783, -0.0058824187144637108, 0.016031302511692047, -0.097856678068637848, -0.027058012783527374, -0.027723347768187523, -0.0089436545968055725, 0.0074205575510859489, 0.10643693804740906, 0.014304009266197681, 0.088926993310451508, 0.10031753033399582, 0.0042631342075765133, -0.029172206297516823, -0.073516003787517548, 0.092687793076038361, 0.12404035776853561, 0.010400381870567799, 0.074633590877056122, 0.0060063567943871021, 0.11211488395929337, 0.00089578342158347368, 0.10586582124233246, 0.050015121698379517, -0.041092026978731155, 0.073962174355983734, -0.048644647002220154, 0.12330152094364166, -0.068694256246089935, -0.018110586330294609, 0.0028553707525134087, -0.1001589372754097, -0.024224717170000076, 0.023762885481119156, -0.0074631506577134132, 0.016305010765790939, 0.071686133742332458, -0.015093328431248665, 0.066024884581565857, -0.04262445867061615, -0.06289692223072052, -0.054685357958078384, -0.041454058140516281, 0.027454135939478874, -0.086459152400493622, 0.12141008675098419, 0.076516926288604736, -0.099648505449295044, -0.090028740465641022, 0.059500575065612793, -0.093571469187736511, 0.037562575191259384, -0.082015395164489746, -0.079256251454353333, 0.11182089895009995, 0.01470273919403553, 0.040229212492704391, 0.11171058565378189, -0.095054738223552704, -0.013854807242751122, -0.10550875961780548, -0.097527705132961273, 0.037973962724208832, -0.084789738059043884, 0.11095898598432541, 0.085235677659511566, -0.032267872244119644, -0.091593123972415924, -0.061939947307109833, -0.062057323753833771, -0.06430467963218689, 0.11455011367797852, -0.077105864882469177, 0.025232026353478432, -0.009031238965690136, -0.024152006953954697, 0.0042341160587966442, -0.038017336279153824, -0.027210066094994545, -0.0382583849132061, -0.0064471671357750893, -0.0034784532617777586, 0.057160183787345886, 0.071398690342903137, 0.11402346193790436, 0.073531314730644226, -0.012373996898531914, 0.073638126254081726, 0.05772322416305542, 0.07259272038936615, 0.098757900297641754, -0.075967729091644287, -0.0179570522159338, 0.092226430773735046, -0.019832128658890724, 0.11058832705020905, -0.013573307543992996, 0.095787547528743744, -0.056083567440509796, -0.063125453889369965, 0.11336018890142441, 0.044971555471420288, 0.0074673322960734367, -0.025535251945257187, 0.066888727247714996, -0.069462008774280548, 0.037307173013687134, 0.058237984776496887, 0.080801330506801605, -0.072506003081798553, 0.023111162707209587, -0.024996386840939522, 0.041002832353115082, 0.089789092540740967, 0.071592621505260468, -0.062552720308303833, 0.069369502365589142, -0.043637193739414215, 0.033519778400659561, 
  -0.1029469296336174, 0.12266726791858673, -0.038102298974990845, 0.034965511411428452, 0.040820110589265823, 0.028680766001343727, 0.10450419783592224, -0.051679585129022598, 0.0026074906345456839, -0.059523176401853561, -0.020627774298191071, 0.08999236673116684, -0.02114897221326828, -0.024628741666674614, 0.0050884517841041088, -0.005986564327031374, -0.023878106847405434, 0.046130180358886719, -0.093138925731182098, -0.091872617602348328, 0.017827536910772324, 0.078755445778369904, 0.04732426255941391, 0.10371708869934082, 0.10383773595094681, 0.016409039497375488, -0.056199774146080017, -0.066003769636154175, -0.055989470332860947, -0.10405869781970978, 0.077075876295566559, 0.087493494153022766, 0.046580031514167786, -0.025141172111034393, 0.12281516194343567, 0.072958782315254211, -0.036890622228384018, -0.056103464215993881, 0.040667537599802017, 0.084061026573181152, -0.053130302578210831, 0.066846564412117004, -0.07024691253900528, 0.026466835290193558, -0.068202883005142212, 0.010615838691592216, -0.04779636487364769, 0.066250249743461609, 0.072143010795116425, -0.053753964602947235, 0.078524336218833923, 0.12277591228485107, 0.0022250381298363209, -0.089752241969108582, 0.093982763588428497, 0.10966242104768753, 0.11915592104196548, -0.086119025945663452, 0.067528754472732544, -0.090328030288219452, -0.077728405594825745, -0.037049759179353714, 0.075954228639602661, -0.012350952252745628, 0.091071076691150665, 0.030896089971065521, 0.11648087203502655, 0.089129216969013214, 0.019265124574303627, 0.017078721895813942, -0.029518214985728264, 0.096017569303512573, 0.073710590600967407, -0.037496939301490784, -0.077613122761249542, 0.057025384157896042, 0.12117395550012589, -0.055872112512588501, 0.075661316514015198, 0.011685921810567379, -0.098520375788211823, -0.054124359041452408, -0.11660686135292053, -0.017079763114452362, 0.04458831250667572, 0.10371498018503189, -0.0088762314990162849, 0.055010784417390823, -0.075455181300640106, 0.10052522271871567, -0.047324046492576599, 0.042513273656368256, -0.091015592217445374, -0.093072958290576935, 0.052886039018630981, 0.040452543646097183, -0.054526578634977341, 0.014417973347008228, -0.08242681622505188, 0.036345507949590683, 0.0065350071527063847, 0.04961467906832695, -0.044735435396432877, -0.085854828357696533, -0.055113717913627625, 0.10751161724328995, -0.025887845084071159, -0.047499582171440125, 0.075979113578796387, 0.078380949795246124, -0.059051372110843658, 7.0750552367826458e-06, 0.016110870987176895, 0.022398559376597404, -0.083245813846588135, -0.05977354571223259, -0.10099814087152481, 0.0021052598021924496, -0.041398193687200546, 0.024110360071063042, 0.064269967377185822, 0.070808388292789459, 0.12005336582660675, 0.083945959806442261, 0.10628953576087952, -0.061840474605560303, -0.0086850728839635849, -0.02894199825823307, 0.063450247049331665, 0.061882615089416504, -0.02831123024225235, 0.009437057189643383, -0.097165331244468689, 0.11244300007820129, 0.061752486974000931, -0.086036510765552521, 0.1285974383354187, 0.027229145169258118, -0.072813995182514191, -0.070857435464859009, -0.10145591199398041, -0.030382536351680756, -0.10540711879730225, -0.07748856395483017, 0.093471191823482513, -0.040378633886575699, -0.075581438839435577, 0.04578934982419014, 0.12351419776678085, 0.10233992338180542, -0.076161295175552368, 0.017480973154306412, -0.0057846968993544579, 0.085537120699882507, 0.092785611748695374, -0.096180170774459839, 0.10587348788976669, 0.0026243682950735092, -0.016110192984342575, -0.10342400521039963, -0.0085860667750239372, 0.10051281750202179, 0.065309636294841766, 0.11913753300905228, -0.049820095300674438, -0.075667105615139008, 0.082928605377674103, -0.079302020370960236, 0.081241890788078308, 0.047169305384159088, -0.027022898197174072, 0.050345972180366516, 0.10601534694433212, -0.019052520394325256, -0.013454918749630451, 0.012813808396458626, 0.11274763196706772, 0.10149374604225159, -0.022931031882762909, 0.007003322709351778, -0.081229753792285919, -0.068381153047084808, -0.067975953221321106, -0.097521990537643433, 0.033417154103517532, 0.04903731495141983, 0.0092505067586898804, 0.039532456547021866, 0.020070906728506088, -0.0012565898941829801, 0.0058482084423303604, -0.035543054342269897, 0.083498120307922363, -0.026439392939209938, 0.053929045796394348, 0.029426081106066704, 0.082185797393321991, 0.056067671626806259, 0.017384894192218781, 0.018804349005222321, -0.10425936430692673, 0.097868636250495911, -0.026680110022425652, -0.015834519639611244, 0.10395823419094086, -0.067757867276668549, 0.11109209060668945, 0.1125028058886528, -0.014131965115666389, 0.092874079942703247, -0.00052753248019143939, 0.047701962292194366, 0.12766869366168976, 0.062349341809749603, -0.028155490756034851, 0.059637799859046936, 0.051619626581668854, -0.090428978204727173, 0.022236829623579979, 0.096366144716739655, -0.059598445892333984, 0.11115864664316177, -0.066054321825504303, -0.10635381937026978, 0.11830466985702515, 0.015284125693142414, -0.076195836067199707, 0.033722802996635437, 0.12084461003541946, 0.042196717113256454, -0.030016165226697922, -0.08173052966594696, -0.016757860779762268, 0.0057532940991222858, 0.079403236508369446, 0.037328153848648071, -0.063628949224948883, 0.03735046461224556, 0.082936093211174011, -0.098606899380683899, 0.087526090443134308, -0.10937631130218506, -0.039877455681562424, -0.015280624851584435, -0.0029935517814010382, -0.054077688604593277, 0.039676234126091003, 0.063294209539890289, 0.08787941187620163, -0.0085172941908240318, -0.062037046998739243, 0.079742640256881714, 0.051455434411764145, -0.045732177793979645, 0.054562442004680634, 0.017207955941557884, -0.011203266680240631, -0.10035121440887451, -0.0082575837150216103, -0.10496397316455841, 0.0016911851707845926, -0.075873814523220062, -0.056077770888805389, 0.064103223383426666, 0.050504844635725021, -0.044648934155702591, -0.034754335880279541, 0.12210111320018768, -0.07078523188829422, -0.097951285541057587, 0.1116037592291832, -0.06233195960521698, 0.094052530825138092, 0.075491786003112793, -0.042556170374155045, 0.10837830603122711, 0.045927040278911591, 0.02358681708574295, 0.038464147597551346, -0.078392468392848969, 0.094859890639781952, -0.065900467336177826, -0.040077924728393555, -0.054803986102342606, -0.066317662596702576, -0.10334767401218414, 0.033087529242038727, -0.0057087731547653675, 0.003575650742277503, -0.062800250947475433, -0.0041167708113789558, 0.071749530732631683, -0.079463034868240356, -0.05317557230591774, 0.0014892714098095894, 0.11104243248701096, -0.013066563755273819, 0.0098242452368140221, 0.028288375586271286, -0.022872857749462128, -0.046137724071741104, 0.011419747956097126, 0.026583123952150345, 0.074552766978740692, -0.0074366871267557144, 0.052265599370002747, 0.08997257798910141, -0.033319186419248581, 0.11439848691225052, 0.031191179528832436, 0.015433257445693016, -0.082083716988563538, 0.12352081388235092, 0.11980662494897842, -0.029448937624692917, -0.084605887532234192, 0.012065903283655643, -0.087713435292243958, 0.076726183295249939, -0.029885893687605858, -0.083210483193397522, -0.0020310217514634132, -0.093877308070659637, -0.0036568555515259504, -0.058948986232280731, -0.035354655236005783, 0.1279512345790863, 0.079232275485992432, 0.045861847698688507, -0.087970241904258728, 0.012158386409282684, 0.076538048684597015, -0.010792264714837074, -0.0075374860316514969, 0.042392108589410782, 0.073899425566196442, -0.021874139085412025, 0.080368645489215851, -0.10127981007099152, 0.022561008110642433, 0.12526044249534607, 0.0041572093032300472, 0.025098282843828201, 0.064732775092124939, -0.0027861890848726034, 0.029355613514780998, -0.066559635102748871, 0.063500754535198212, 0.098475277423858643, 0.10036797821521759, 0.012994678691029549, 0.092007026076316833, 0.017522947862744331, 0.077409990131855011, 0.0043827975168824196, 0.066475175321102142, -0.07855512946844101, 0.069266311824321747, -0.044777121394872665, 0.094489157199859619, 0.030683312565088272, 0.021490426734089851, -0.039904799312353134, 0.019705789163708687, -0.060052607208490372, -0.059748321771621704, 0.057487156242132187, -0.059431366622447968, -0.036170642822980881, 0.035009097307920456, -0.012463828548789024, 0.029883585870265961, 0.0036858026869595051, 0.074583478271961212, -0.08221261203289032, 0.044321559369564056, 0.10204579681158066, -0.064144238829612732, 0.073891684412956238, -0.10031167417764664, 0.0026577687822282314, -0.062634110450744629, 0.077644690871238708, -0.031868111342191696, -0.094527542591094971, -0.044836964458227158, 0.10200901329517365, 0.0086548076942563057, -0.077751494944095612, 0.12567876279354095, -0.0068868417292833328, -0.045143913477659225, 0.069149903953075409, -0.067603603005409241, -0.02155153825879097, 0.038638949394226074, 0.088944442570209503, 0.092626407742500305, -0.074589356780052185, 0.024867169559001923, 
  -0.0082524800673127174, 0.090522728860378265, -0.1022622212767601, 0.00070467049954459071, 0.021766813471913338, 0.012698917649686337, 0.02675928920507431, 0.10095052421092987, 0.092998802661895752, 0.09313742071390152, -0.066434860229492188, 0.047043647617101669, -0.010210400447249413, -0.11469143629074097, 0.095078162848949432, -0.022046398371458054, 0.035201195627450943, 0.017246704548597336, -0.050180967897176743, 0.068050377070903778, -0.06725040078163147, 0.064002923667430878, 0.026697836816310883, 0.068981751799583435, -0.096428267657756805, 0.039845168590545654, 0.10436708480119705, 0.068384721875190735, 0.025370713323354721, 0.059094499796628952, 0.052567910403013229, 0.020635707303881645, -0.095982514321804047, 0.081903919577598572, 0.083295546472072601, 0.060164857655763626, -0.026117522269487381, 0.024388980120420456, -0.039872922003269196, 0.030900523066520691, 0.10242482274770737, -0.047723911702632904, 0.0073637659661471844, -0.096264399588108063, -0.12053204327821732, -0.02378501184284687, -0.027590852230787277, 0.097142122685909271, 0.076720789074897766, -0.069854818284511566, -0.036417480558156967, 0.10557016730308533, -0.049289654940366745, 0.022453619167208672, -0.083800502121448517, -0.094323113560676575, -0.03935767337679863, -0.028881803154945374, 0.049827542155981064, 0.00083706626901403069, -0.08021409809589386, 0.069721989333629608, -0.095064021646976471, -0.069164060056209564, -0.035354718565940857, -0.049668408930301666, 0.011893500573933125, -0.10253837704658508, 0.024922318756580353, -0.078612670302391052, -0.067316949367523193, -0.10853415727615356, -0.084016710519790649, 0.0072406609542667866, 0.075324647128582001, -0.075209692120552063, -0.12099025398492813, -0.10053222626447678, -0.11617367714643478, 0.052698004990816116, -0.017264744266867638, -0.087149962782859802, -0.095019534230232239, -0.068939946591854095, 0.089207567274570465, -0.090173646807670593, -0.026108842343091965, -0.069134995341300964, -0.050186734646558762, 0.10824780911207199, -0.043400261551141739, -0.03901267796754837, 0.087901994585990906, 0.04772765189409256, 0.09086916595697403, 0.0065453690476715565, -0.079023726284503937, 0.08016958087682724, 0.015319844707846642, -0.043167360126972198, -0.03800230473279953, 0.10815394669771194, -0.044406022876501083, -0.11843439191579819, 0.098316818475723267, 0.032248388975858688, -0.12361077964305878, -0.045914191752672195, 0.066753603518009186, -0.0058716395869851112, 0.084340833127498627, 0.10012489557266235, 0.076725900173187256, -0.081460714340209961, 0.0094021447002887726, -0.10537470877170563, 0.081898078322410583, -0.096660807728767395, 0.029005356132984161, -0.090379804372787476, -0.047966063022613525, 0.0049157831817865372, -0.061579562723636627, 0.044090542942285538, -0.070617400109767914, -0.044543053954839706, 0.050102505832910538, 0.030774500221014023, -0.036689233034849167, 0.0421796515583992, 0.062405690550804138, 0.047027237713336945, 0.032067488878965378, -0.062751904129981995, 0.085772179067134857, 0.052285186946392059, 0.007702055387198925, -0.043032731860876083, -0.11715378612279892, -0.115712009370327, -0.081086203455924988, 0.026233222335577011, -0.12197822332382202, 0.094355888664722443, -0.040382765233516693, 0.10073675215244293, -0.09855370968580246, 0.010813543573021889, 0.019436860457062721, -0.0035792661365121603, -0.0011237956350669265, -0.055275693535804749, -0.099227383732795715, 0.09815998375415802, 0.072789937257766724, -0.048835888504981995, -0.010141460224986076, -0.078498609364032745, -0.0043638106435537338, -0.06345270574092865, -0.057521648705005646, -0.010633227415382862, 0.0042848708108067513, 0.049686118960380554, 0.019061541184782982, 0.013554738834500313, -0.10668835788965225, 0.0030257385224103928, 0.046747587621212006, 0.064996868371963501, -0.096254840493202209, -0.02900252491235733, 0.074131280183792114, -0.067029625177383423, -0.069398202002048492, -0.12301807105541229, -0.047649793326854706, -0.0084736291319131851, 0.10140360146760941, -0.061762060970067978, -0.081979617476463318, 0.012242401018738747, 0.098750025033950806, 0.10376068204641342, 0.10302558541297913, -0.0083263283595442772, 0.050989706069231033, 0.092670999467372894, -0.052059106528759003, -0.093101553618907928, -0.0059985881671309471, -0.063586704432964325, -0.092657521367073059, 0.016805596649646759, 0.030204037204384804, -0.050861209630966187, 0.020699737593531609, -0.054335027933120728, -0.052525077015161514, -0.11568058282136917, -0.047978304326534271, 0.026498539373278618, 0.036043129861354828, 0.033754616975784302, 0.10116978734731674, -0.11313551664352417, -0.028918007388710976, -0.055959943681955338, 0.060612298548221588, 0.10435149073600769, 0.068796105682849884, -0.04602682963013649, 0.029398750513792038, -0.098271504044532776, 0.053610265254974365, -0.077289767563343048, 0.080404050648212433, 0.0090885302051901817, -0.073867499828338623, 0.091387778520584106, 0.040068179368972778, 0.032241001725196838, 0.080489657819271088, -0.024321313947439194, -0.12286528944969177, 0.091663718223571777, -0.090454556047916412, -0.035263165831565857, -0.0058941948227584362, -0.065991431474685669, 0.075859874486923218, 0.01423969492316246, -0.094067230820655823, -0.0092111453413963318, 0.043257474899291992, 0.10924578458070755, 0.0044280262663960457, 0.0037428229115903378, 0.11020393669605255, 0.0083961840718984604, -0.043463915586471558, -0.10445615649223328, -0.01229134202003479, -0.029672497883439064, -0.029516419395804405, -0.11286202818155289, -0.025377826765179634, -0.046671152114868164, -0.12660805881023407, -0.0025952223222702742, -0.019122174009680748, 0.065365612506866455, -0.028446035459637642, 0.097192071378231049, -0.11399763822555542, -0.11389002203941345, 0.081077493727207184, -0.095214702188968658, -0.12711986899375916, -0.049843035638332367, 0.0058720996603369713, -0.017968695610761642, -0.10095139592885971, -0.082431003451347351, 0.046198226511478424, 0.02673708088696003, 0.067838683724403381, -0.040678925812244415, -0.029520072042942047, -0.063023261725902557, 0.096570678055286407, 0.064502708613872528, -0.056166484951972961, 0.035689994692802429, 0.10677534341812134, -0.043020665645599365, -0.093486256897449493, 0.050826743245124817, 0.061154678463935852, -0.088777817785739899, 0.063648112118244171, -0.043203063309192657, 0.10477180033922195, -0.051680535078048706, 0.092572301626205444, -0.09037422388792038, 0.057973306626081467, -0.042478602379560471, -0.088472142815589905, 0.088231764733791351, 0.049851767718791962, 0.052496973425149918, -0.11667907983064651, 0.1021285280585289, 0.10316421836614609, -0.10267641395330429, -0.040907710790634155, 0.0087198177352547646, -0.019244011491537094, 0.098612748086452484, -0.0032121762633323669, -0.096395872533321381, -0.076868630945682526, -0.031162723898887634, 0.096098370850086212, -0.023333393037319183, -0.081044428050518036, -0.00045478218817152083, -0.0031827958300709724, 0.090918861329555511, -0.12714363634586334, -0.041143544018268585, -0.076036073267459869, -0.023978693410754204, 0.021066848188638687, 0.10776859521865845, 0.052680715918540955, -0.039008770138025284, -0.053798772394657135, -0.072541847825050354, -0.018038811162114143, 0.091280966997146606, -0.058882229030132294, -0.089619144797325134, 0.052198022603988647, 0.10751683264970779, -0.061150476336479187, 0.069598771631717682, -0.12486023455858231, -0.11555448919534683, 0.1009368970990181, 0.097461603581905365, -0.073991775512695312, -0.1265842616558075, -0.095360726118087769, -0.11210331320762634, 0.070825867354869843, -0.071089394390583038, -0.01325061172246933, 0.030643798410892487, -0.020235439762473106, -0.094095051288604736, -0.10858842730522156, 0.083453275263309479, 0.0058623393997550011, -0.014508118852972984, 0.031099596992135048, -0.014398150146007538, -0.019511960446834564, -0.021082149818539619, 0.095976151525974274, -0.086267657577991486, 0.081797994673252106, -0.090312555432319641, 0.010910424403846264, 0.057760536670684814, 0.024380363523960114, -0.059671703726053238, -0.025092840194702148, -0.0093325357884168625, 0.014625506475567818, -0.061101946979761124, 0.0023417125921696424, 0.02840154618024826, -0.054612580686807632, 0.10280037671327591, -0.12713836133480072, -0.086824677884578705, -0.11651737987995148, 0.028001647442579269, -0.030202854424715042, 0.029491212218999863, -0.12590035796165466, 0.04466560110449791, -0.085287801921367645, -0.0069947340525686741, -0.10943232476711273, -0.071273930370807648, -0.0048297783359885216, -0.035646446049213409, 0.014380560256540775, -0.095422796905040741, -0.021398873999714851, 0.054400581866502762, -0.11448913067579269, 0.108184814453125, 0.076180703938007355, -0.024904113262891769, 0.10039159655570984, -0.09891025722026825, -0.074464969336986542, -0.082873664796352386, -0.051145993173122406, -0.01067434623837471, 0.10715524107217789, 0.037108160555362701, 0.05804753303527832, -0.049687944352626801, -0.015242680907249451, 0.037673167884349823, 
  0.049482502043247223, -0.00053435866720974445, 0.047937911003828049, 0.1004633754491806, 0.048087190836668015, -0.011382498778402805, 1.8920545699074864e-05, -0.047067269682884216, -0.11547820270061493, -0.0052566388621926308, -0.076901495456695557, -0.028728140518069267, -0.10484391450881958, -0.074977710843086243, 0.025971516966819763, -0.096326448023319244, -0.023322110995650291, -0.082346834242343903, -0.0026203866582363844, -0.12407970428466797, -0.0040931636467576027, 0.017633475363254547, 0.092294469475746155, 0.057796880602836609, 0.057826213538646698, -0.011792504228651524, 0.066350847482681274, 0.060198608785867691, -0.11416947841644287, -0.069131322205066681, -0.022313520312309265, -0.091538205742835999, 0.10340821743011475, -0.064275309443473816, 0.068358831107616425, 0.023509137332439423, -0.041026372462511063, 0.029022518545389175, 0.0026364605873823166, 0.10838537663221359, 0.018990024924278259, -0.039970438927412033, -0.070674307644367218, -0.034902852028608322, 0.083731696009635925, -0.064126230776309967, -0.10973536968231201, -0.0048357625491917133, -0.10848867893218994, -0.044343795627355576, -0.10797405987977982, -0.11846517026424408, 0.029471952468156815, -0.020222045481204987, 0.067604817450046539, -0.090586729347705841, -0.089099548757076263, 0.024294277653098106, -0.087214954197406769, 0.050179567188024521, 0.043563321232795715, -0.093761369585990906, -0.086598873138427734, 0.086127743124961853, -0.041700307279825211, 0.074442178010940552, -0.031746242195367813, -0.074774071574211121, -0.059309918433427811, 0.095597654581069946, 0.065832525491714478, 0.015517123974859715, 0.014833631925284863, -0.11721755564212799, -0.086553424596786499, -0.082653291523456573, 0.04875466600060463, -0.10377538204193115, -0.10479878634214401, -0.032102074474096298, -0.064758136868476868, -0.073263444006443024, 0.069197982549667358, -0.016499744728207588, -0.043661117553710938, -0.048556238412857056, 0.049477234482765198, 0.022472960874438286, 0.014272879809141159, -0.044577296823263168, 0.071607798337936401, 0.054879613220691681, 0.010445860214531422, 0.038253989070653915, 0.013083487749099731, -0.088746830821037292, -0.057945884764194489, -0.043984472751617432, -0.014860985800623894, 0.045243263244628906, 0.012984517030417919, 0.0016189847374334931, 0.026521934196352959, -0.0054278671741485596, -0.095430247485637665, -0.11749652773141861, -0.052363704890012741, 0.09972158819437027, -0.05191623792052269, 0.10690639168024063, 0.084585919976234436, -0.096847660839557648, 0.011856747791171074, 0.073787473142147064, 0.061449799686670303, 0.039485495537519455, -0.020432516932487488, -0.009115033783018589, -0.12631793320178986, -0.11751344054937363, -0.079762257635593414, 0.085816182196140289, -0.073151037096977234, -0.0036406756844371557, 0.077808596193790436, -0.10268380492925644, -0.027942506596446037, -0.08649754524230957, -0.05133403092622757, -0.091785997152328491, -0.068500161170959473, -0.0059471330605447292, -0.021589647978544235, 0.015463413670659065, -0.043577514588832855, -0.026811717078089714, 0.0099700810387730598, -0.073015563189983368, -0.060691040009260178, 0.037515141069889069, -0.085956171154975891, 0.074184499680995941, -0.049798276275396347, 0.068085096776485443, -0.092832118272781372, -0.0065228589810431004, 0.035847190767526627, 0.061012767255306244, -0.039429686963558197, 0.026056475937366486, 0.10249961167573929, -0.082901716232299805, 0.077248044312000275, 0.043401721864938736, 0.0011888557346537709, 0.092885546386241913, -0.10522152483463287, -0.075366206467151642, 0.078557886183261871, -0.015348097309470177, 0.060898255556821823, -0.11537382006645203, 0.072378158569335938, 0.047415073961019516, 0.088782660663127899, -0.050098299980163574, -0.12440681457519531, 0.053235340863466263, 0.096318699419498444, -0.10844741016626358, -0.089965961873531342, 0.055455524474382401, -0.090816184878349304, -0.017721021547913551, 0.070605181157588959, 0.061983931809663773, -0.031397312879562378, -0.024405715987086296, -0.12358976900577545, -0.11882919073104858, 0.05713227391242981, 0.014377177692949772, -0.082323804497718811, 0.0083835730329155922, 0.076989024877548218, -0.001436394639313221, 0.034968513995409012, 0.014463748782873154, 0.089614473283290863, 0.029430577531456947, 0.054631981998682022, 0.077989138662815094, 0.098950579762458801, -0.10453122854232788, 0.0055719716474413872, -0.038504455238580704, 0.10333134979009628, -0.00029371955315582454, -0.048456132411956787, -0.059683963656425476, 0.082259029150009155, -0.014760617166757584, -0.0053782514296472073, -0.017527341842651367, -0.034602034837007523, -0.033355433493852615, -0.06627318263053894, 0.074162684381008148, -0.034214675426483154, 0.045049369335174561, -0.0058118063025176525, -0.029189273715019226, -0.079535342752933502, 0.051522742956876755, 0.10981006920337677, -0.00061071175150573254, -0.013880966231226921, -0.10371614992618561, -0.06737169623374939, -0.032984752207994461, 0.079068891704082489, -0.048641577363014221, -0.12375479936599731, -0.031932808458805084, -0.10287924110889435, -0.050719175487756729, -0.064653441309928894, 0.082141481339931488, -0.10823089629411697, 0.06593969464302063, 0.045374888926744461, 0.09274909645318985, 0.080133259296417236, 0.025443270802497864, 0.010027174837887287, -0.012815478257834911, -0.027092041447758675, -0.10868687182664871, 0.10574653744697571, -0.096664369106292725, -0.050270453095436096, -0.063800372183322906, -0.065254956483840942, 0.046808402985334396, 0.049966670572757721, -0.11645320057868958, -0.091806456446647644, -0.092053361237049103, -0.048023983836174011, -0.043848700821399689, -0.032434355467557907, -0.0026802073698490858, -0.025238579139113426, -0.098035357892513275, 0.017377298325300217, -0.11511369049549103, 0.035735875368118286, -0.080938078463077545, -0.058324340730905533, 0.011238282546401024, 0.047254092991352081, 0.074561133980751038, 0.020051112398505211, 0.061406474560499191, 0.037306107580661774, -0.045448210090398788, -0.082351014018058777, 0.026193501427769661, -0.061160624027252197, 0.013424268923699856, 0.029746958985924721, -0.041778277605772018, -0.041428513824939728, 0.074258312582969666, 0.081067807972431183, -0.041815273463726044, -0.019815977662801743, -0.040859166532754898, -0.086731292307376862, 0.091450728476047516, 0.00058446766342967749, -0.014181806705892086, -0.057261865586042404, 0.087934762239456177, -0.058259602636098862, 0.093837112188339233, -0.12174371629953384, -0.015619874000549316, -0.10202816128730774, -0.010638441890478134, -0.086292102932929993, 0.089990116655826569, -0.05426233634352684, 0.098459847271442413, -0.075374633073806763, -0.02588130347430706, 0.099373139441013336, -0.01963450200855732, -0.044087789952754974, -0.024340666830539703, -0.039042811840772629, -0.054781451821327209, -0.0064485287293791771, -0.033322427421808243, 0.004043815191835165, 0.088863588869571686, 0.040022026747465134, 0.10377393662929535, -0.009160161018371582, -0.11990346759557724, 0.085452750325202942, -0.013920244760811329, -0.050027813762426376, 0.079346336424350739, 0.037530060857534409, -0.031625881791114807, 0.066128939390182495, 0.073577776551246643, -0.089538201689720154, 0.076554290950298309, -0.08138563483953476, 0.055743765085935593, -0.083984047174453735, -0.11081432551145554, 0.038535837084054947, -0.039814040064811707, -0.099088087677955627, -0.055147472769021988, 0.0076054106466472149, -0.055339440703392029, 0.07992246001958847, -0.12971693277359009, 0.039531856775283813, -0.050971459597349167, -0.12626875936985016, -0.12716910243034363, -0.12471159547567368, -0.094406090676784515, 0.0015608781250193715, 0.10529718548059464, 0.03225037083029747, -0.058039315044879913, 0.055532842874526978, -0.074400179088115692, -0.090854167938232422, -0.056763734668493271, -0.068355955183506012, -0.099148169159889221, 0.039642594754695892, 0.065740585327148438, -0.10863302648067474, 0.10195740312337875, 0.099619731307029724, 0.080852486193180084, 0.080456092953681946, -0.12468085438013077, -0.02611190639436245, -0.10909225046634674, 0.010686647146940231, 0.079056285321712494, -0.038620952516794205, -0.12163899093866348, -0.095732569694519043, 0.10408619791269302, -0.10733272135257721, -0.088031545281410217, -0.096827283501625061, 0.0294774379581213, -0.10860399156808853, -0.082744620740413666, -0.05187360942363739, -0.065435685217380524, -0.10700942575931549, -0.019208820536732674, -0.057784672826528549, -0.04144374281167984, -0.011515917256474495, 0.051176849752664566, 0.0024410802870988846, -0.016077868640422821, -0.043382856994867325, -0.027156051248311996, -0.02071152999997139, -0.037400536239147186, 0.02686089463531971, 0.10013160854578018, -0.060083143413066864, -0.046187456697225571, 0.016123302280902863, -0.054115567356348038, 0.019696410745382309, -0.025330517441034317, 0.069603390991687775, 0.0096631674095988274, 0.052826594561338425, -0.013896696269512177, -0.080467641353607178, 0.014091378077864647, 0.065220393240451813, -0.014832100830972195, 
  -0.096462883055210114, -0.033598218113183975, -0.07869412750005722, 0.016801878809928894, 0.050300940871238708, -0.05977722629904747, -0.038210812956094742, 0.089841350913047791, -0.034790016710758209, 0.0030283634550869465, -0.033774510025978088, -0.028265902772545815, -0.022221487015485764, -0.025566259399056435, -0.076236285269260406, 0.021458795294165611, -0.10656126588582993, 0.056212443858385086, -0.077851772308349609, 0.010538212023675442, -0.082231976091861725, 0.0067008920013904572, 0.03893178328871727, -0.02509336918592453, -0.092100061476230621, 0.085494115948677063, -0.12199573963880539, 0.09343082457780838, 0.0059061408974230289, 0.063105270266532898, 0.053078878670930862, 0.0040390705689787865, -0.060962788760662079, -0.089238740503787994, -0.026735521852970123, -0.074338249862194061, 0.038987480103969574, 0.10462535172700882, -0.11598936468362808, -0.030892958864569664, -0.056773986667394638, 0.035372089594602585, -0.037127465009689331, 0.096404820680618286, 0.073749199509620667, -0.029603876173496246, -0.10428851842880249, -0.06307973712682724, -0.037353485822677612, -0.038989856839179993, 0.045486804097890854, 0.051229186356067657, -0.10461484640836716, 0.10646937787532806, -0.03393935039639473, 0.094998210668563843, 0.012463927268981934, -0.030617121607065201, -0.045577451586723328, 0.057568646967411041, 0.066957540810108185, 0.10427366942167282, 0.0831608846783638, 0.018047111108899117, -0.12647375464439392, -0.019763652235269547, 0.047207828611135483, 0.10482685267925262, -0.088035359978675842, -0.1213897168636322, 0.056746914982795715, 0.096465654671192169, -0.053311027586460114, -0.082997165620326996, -0.054731916636228561, 0.067994862794876099, -0.036177195608615875, 0.029545826837420464, -0.055101748555898666, -0.11939959973096848, -0.039731398224830627, -0.093033753335475922, -0.050774086266756058, 0.037966843694448471, 0.04212455078959465, -0.081179961562156677, -0.021654620766639709, -0.056401219218969345, -0.048857118934392929, -0.039540320634841919, 0.088262595236301422, -0.090790040791034698, 0.086490832269191742, 0.015150760300457478, 0.10356710106134415, -0.0096730310469865799, -0.01801600493490696, 0.046979591250419617, -0.12492937594652176, -0.1085151880979538, -0.12013766169548035, 0.09013839066028595, 0.046983655542135239, 0.071630001068115234, -0.11411678045988083, -0.10081309080123901, 0.065778926014900208, -0.10773907601833344, 0.058146454393863678, 0.003754147794097662, -0.11726085841655731, -0.014627875760197639, -0.05466645210981369, -0.0017374076414853334, 0.010401220060884953, -0.09883754700422287, -0.045071195811033249, -0.10296545177698135, -0.065630853176116943, -0.095874965190887451, -0.10211228579282761, -0.021376455202698708, 0.025838786736130714, 0.083331391215324402, 0.055611655116081238, -0.041198808699846268, -0.064003504812717438, -0.033240314573049545, -0.063002906739711761, -0.10348805785179138, -0.080510556697845459, 0.09107585996389389, -0.045685082674026489, 0.091829963028430939, 0.011140600778162479, -0.10320376604795456, -0.11227847635746002, 0.03067789226770401, -0.097119264304637909, 0.083879657089710236, 0.10865738987922668, -0.11032237112522125, -0.027619913220405579, 0.078494146466255188, -0.061680331826210022, -0.058240175247192383, -0.049624726176261902, -0.058252263814210892, 0.021925907582044601, -0.084131903946399689, -0.11327440291643143, 0.032327346503734589, 0.045719854533672333, -0.016213828697800636, -0.041362747550010681, 0.0068907877430319786, 0.08541281521320343, -0.020547790452837944, -0.10657278448343277, 0.062789127230644226, 0.047846179455518723, 0.081706129014492035, 0.0783262699842453, -0.00050834432477131486, 0.098700478672981262, 0.032269317656755447, 0.058165233582258224, 0.022047793492674828, 0.057340692728757858, 0.071397244930267334, 0.083539597690105438, -0.12333187460899353, 0.085249431431293488, -0.0023907406721264124, 0.1018085852265358, 0.076322078704833984, -0.082652226090431213, 0.083081766963005066, 0.014934360049664974, 0.06680016964673996, 0.022910922765731812, -0.053352408111095428, -0.025754194706678391, -0.0027753277681767941, -0.10289286822080612, 0.03883511945605278, 0.081239625811576843, -0.010868268087506294, -0.080782771110534668, -0.082456909120082855, 0.019480833783745766, -0.033746190369129181, -0.019870774820446968, -0.10864237695932388, -0.073335066437721252, -0.054310247302055359, -0.025204621255397797, -0.071919620037078857, 0.029661118984222412, 0.033537883311510086, -0.098610423505306244, -0.10432175546884537, -0.018536476418375969, -0.029929650947451591, -0.048548124730587006, 0.0033510639332234859, -0.10799692571163177, -0.064810618758201599, -0.035338420420885086, 0.047960478812456131, -0.073515221476554871, -0.057553227990865707, -0.10215330868959427, 0.036012317985296249, -0.005537787452340126, -0.026535471901297569, -0.0046801455318927765, -0.08789033442735672, -0.084498673677444458, 0.08348613977432251, -0.11875828355550766, -0.0036655233707278967, -0.034367628395557404, -0.070283427834510803, -0.10760120302438736, -0.023661375045776367, -0.10037112236022949, -0.059008907526731491, -0.0081418491899967194, 0.065508626401424408, 0.036121603101491928, -0.11416994780302048, -0.099659614264965057, -0.11492656171321869, 0.0019835447892546654, 0.019221911206841469, 0.00040552418795414269, -0.066564366221427917, 0.074553519487380981, -0.1174187958240509, -0.039217263460159302, 0.015733465552330017, 0.12322317063808441, -0.11611529439687729, -0.10679087787866592, 0.10430506616830826, -0.044054474681615829, -0.080481991171836853, 0.025006139650940895, -0.11973538994789124, -0.01667092926800251, -0.0081149674952030182, 0.094309225678443909, -0.11605016142129898, 0.044144429266452789, -0.073819436132907867, -0.028717665001749992, -0.023160595446825027, -0.055992361158132553, -0.11836662888526917, 0.0040015187114477158, 0.042900789529085159, -0.032654974609613419, 0.021973365917801857, -0.086009085178375244, -0.1087871640920639, 0.082993388175964355, -0.10165531933307648, -0.045507654547691345, -0.01398058608174324, -0.050481893122196198, -0.097282238304615021, -0.11484328657388687, -0.020951885730028152, 0.036773588508367538, 0.0010328785283491015, 0.071901127696037292, 0.024391366168856621, 0.11122296750545502, 0.0048737972974777222, -0.062924757599830627, 0.049386221915483475, -0.0672636479139328, 0.083088308572769165, -0.02074766531586647, 0.0029235249385237694, 0.07685447484254837, -0.027644030749797821, -0.10613447427749634, 0.022996868938207626, 0.013474312610924244, -0.028449270874261856, -0.021416373550891876, -0.076914556324481964, -0.045889336615800858, 0.0079842032864689827, 0.027440529316663742, 0.024524103850126266, -0.0234258733689785, -0.028690943494439125, 0.067806512117385864, -0.11769846081733704, -0.016656788066029549, -0.098698213696479797, 0.066548891365528107, 0.0051343506202101707, -0.10303863883018494, -0.080163769423961639, 0.035307504236698151, 0.0073544587939977646, -0.07440321147441864, 0.10027147829532623, -0.059655502438545227, -0.10792837291955948, 0.048332840204238892, -0.043417602777481079, -0.014999903738498688, 0.018228616565465927, -0.019879503175616264, -0.00013638244126923382, -0.056767776608467102, 0.067543752491474152, -0.056520197540521622, -0.080875776708126068, -0.05949808657169342, 0.074455685913562775, 0.025199694558978081, 0.099458567798137665, 0.072061620652675629, -0.068236455321311951, -0.11340282112360001, 0.098090201616287231, 0.0071694222278892994, -0.060246940702199936, 0.031207039952278137, -0.10241539776325226, -0.077076710760593414, 0.014281836338341236, 0.10787369310855865, -0.0064699407666921616, 0.097502641379833221, 0.07683880627155304, -0.097884006798267365, 0.046689834445714951, 0.057156164199113846, -0.065135322511196136, -0.11411562561988831, -0.068824127316474915, -0.069860808551311493, 0.0069324993528425694, -0.098898261785507202, 0.087434291839599609, -0.11859024316072464, 0.016514962539076805, -0.037805661559104919, -0.031272765249013901, -0.083498738706111908, -0.050974328070878983, 0.0171092189848423, 0.044323686510324478, -0.020141847431659698, -0.099659569561481476, 0.098295331001281738, -0.089274078607559204, -0.0063018621876835823, -0.012936964631080627, 0.0071298205293715, 0.052508890628814697, 0.084141075611114502, 0.019916269928216934, -0.0092570511624217033, -0.062028367072343826, 0.038396012037992477, -0.003248247317969799, 0.046713948249816895, -0.11329397559165955, -0.049118798226118088, 0.012300878763198853, -0.029959458857774734, -0.012157397344708443, -0.12050770968198776, -0.09599585086107254, -0.056787401437759399, 0.084402941167354584, -0.10754077136516571, -0.01862606406211853, -0.099252663552761078, -0.034793011844158173, 0.041399341076612473, 0.068497568368911743, 0.018873659893870354, -0.024423243477940559, -0.049698054790496826, -0.10159508138895035, 0.057723298668861389, -0.12623885273933411, -0.0014641339657828212, 0.036470025777816772, 0.024439612403512001, 0.098557084798812866, 
  -0.035540986806154251, 0.052055560052394867, -0.040527142584323883, 0.028096793219447136, -0.066509678959846497, 0.100609190762043, 0.11336514353752136, 0.10729598253965378, 0.048314541578292847, 0.10410020500421524, -0.012077161110937595, -0.10618788748979568, 0.095147997140884399, -0.062277760356664658, 0.024592231959104538, -0.02607417106628418, 0.097756728529930115, 0.084352448582649231, 0.027886606752872467, -0.10112401843070984, -0.096365876495838165, 0.068001829087734222, -0.084592297673225403, -0.017660384997725487, 0.0023783824872225523, 0.02136186882853508, -0.041258759796619415, -0.098041340708732605, -0.065350905060768127, -0.10054616630077362, 0.033143263310194016, -0.1097189262509346, -0.0045944470912218094, 0.11176639050245285, 0.030489495024085045, 0.0083680162206292152, -0.096297979354858398, 0.058670245110988617, -0.054995425045490265, -0.08012659102678299, -0.094164222478866577, 0.10310617834329605, -0.060746591538190842, 0.049086377024650574, 0.10272245854139328, -0.03085770271718502, -0.039101701229810715, 0.037615656852722168, 0.053654316812753677, -0.075691252946853638, 0.089490845799446106, 0.11080031841993332, 0.10622544586658478, 0.071399353444576263, -0.046254832297563553, -0.081250108778476715, 0.076000183820724487, 0.095957748591899872, 0.08190811425447464, 0.062471892684698105, -0.1093466505408287, 0.12381723523139954, -0.081757806241512299, -0.062599889934062958, 0.038638491183519363, 0.0017823973903432488, -0.057472795248031616, 0.028043545782566071, -0.085700735449790955, 0.11488074064254761, 0.086379207670688629, 0.12014894187450409, 0.00012842180149164051, 0.031259715557098389, 0.097869955003261566, 0.031343750655651093, 0.0025968253612518311, 0.093195483088493347, -0.073961667716503143, 0.025894057005643845, -0.042964976280927658, 0.067404992878437042, 0.060817211866378784, 0.043642081320285797, -0.0029736089054495096, 0.085675470530986786, -0.00066872034221887589, -0.032860025763511658, 0.10445604473352432, -0.12633287906646729, 0.023690721020102501, -0.068195521831512451, 0.051601238548755646, 0.031470220535993576, -0.10020411759614944, 0.016111155971884727, -0.071181774139404297, 0.0029098179657012224, -0.077729910612106323, 0.068926699459552765, 0.039737392216920853, 0.010061950422823429, 0.10902596265077591, -0.031163021922111511, 0.080497816205024719, -0.01877865381538868, 0.031277064234018326, 0.04155629500746727, 0.12474105507135391, -0.011748796328902245, 0.11148042231798172, -0.063725687563419342, 0.082792684435844421, -0.008165484294295311, 0.043224100023508072, 0.026037571951746941, 0.0082261133939027786, -0.08320540189743042, -0.044188614934682846, 0.024416346102952957, 0.04863719642162323, -0.068762406706809998, -0.054945081472396851, 0.059699449688196182, 0.046882804483175278, -0.012707647867500782, 0.0064030871726572514, 0.061270933598279953, 0.047187946736812592, -0.087073907256126404, -0.0071981744840741158, 0.021781850606203079, 0.043402396142482758, -0.090046979486942291, 0.043758206069469452, 0.12232585251331329, 0.048458248376846313, -0.0013303697342053056, -0.064518831670284271, -0.083311975002288818, 0.084522873163223267, 0.034264586865901947, 0.055049296468496323, 0.079765141010284424, 0.050057206302881241, 0.10483009368181229, 0.0030392317567020655, 0.011749792844057083, -0.10616585612297058, 0.11172336339950562, -0.11024517565965652, 0.095862753689289093, 0.067087091505527496, -0.070096209645271301, -0.051585376262664795, 0.097330756485462189, -0.029455402866005898, 0.008023405447602272, 0.0060950201004743576, 0.071542747318744659, 0.021996883675456047, -0.0066780839115381241, -0.065755121409893036, 0.10225483775138855, 0.085320189595222473, 0.099550455808639526, -0.042828716337680817, -0.051625411957502365, -0.069955885410308838, -0.036789260804653168, 0.10781875997781754, 0.10508199781179428, 0.11391466110944748, 0.10416004061698914, 0.10687916725873947, 0.10223317891359329, -0.068391993641853333, 0.015556542202830315, -0.087956547737121582, -0.022411780431866646, -0.042144529521465302, -0.086477033793926239, 0.037614326924085617, 0.10948586463928223, -0.049522005021572113, 0.062989786267280579, -0.10548882931470871, -0.063562862575054169, -0.041017882525920868, 0.064928077161312103, -0.065767310559749603, 0.11176689714193344, -0.056785430759191513, 0.042479675263166428, 0.099816806614398956, 0.0021525935735553503, 0.051585156470537186, 0.033316206187009811, -0.0040917261503636837, 0.11355589330196381, -0.019697641953825951, 0.12519770860671997, 0.051986496895551682, -0.050390921533107758, -0.075912460684776306, -0.053021721541881561, -0.017322545871138573, -0.058012466877698898, 0.024638762697577477, -0.083363354206085205, 0.012847370468080044, 0.11288909614086151, 0.082647569477558136, 0.10099095106124878, -0.021744245663285255, 0.026902316138148308, -0.0067466730251908302, -0.090090297162532806, 0.12034532427787781, -0.028151385486125946, 0.027694618329405785, 0.0063314754515886307, -0.10855503380298615, 0.023422379046678543, 0.071049831807613373, -0.095328465104103088, -0.095581017434597015, -0.10276239365339279, 0.028443073853850365, -0.058589715510606766, -0.013681510463356972, 0.010866650380194187, -0.040432993322610855, 0.027047274634242058, -0.098736949265003204, 0.014179371297359467, 0.041471533477306366, -0.094218865036964417, -0.055932983756065369, -0.096956968307495117, -0.07460051029920578, -0.092624112963676453, -0.055613834410905838, -0.029492711648344994, 0.033348981291055679, 0.12373256683349609, 0.034986209124326706, -0.0061093759723007679, 0.032378014177083969, -0.059798486530780792, 0.0978255495429039, 0.11575465649366379, 0.10564401000738144, 0.069069735705852509, 0.10396324843168259, -0.089163020253181458, 0.092198744416236877, 0.094473011791706085, 0.082357272505760193, -0.10582812130451202, 0.11874721944332123, 0.055409979075193405, 0.08605511486530304, 0.072295345366001129, -0.0089799463748931885, 0.034315530210733414, 0.12011817097663879, 0.11796848475933075, 0.015787148848176003, -0.086371771991252899, -0.034652281552553177, -0.065586134791374207, -0.09964287281036377, 0.035278450697660446, 0.051357854157686234, -0.098852343857288361, 0.065517567098140717, -0.05838431790471077, 0.0068529262207448483, 0.0095331324264407158, -0.022959591820836067, -0.020341973751783371, 0.12279661744832993, 0.049646619707345963, -0.037629276514053345, 0.021850956603884697, -0.049097638577222824, 0.0026895636692643166, 0.077702321112155914, 0.082182995975017548, -0.096213869750499725, -0.068999387323856354, -0.056781068444252014, 0.031791128218173981, 0.041663214564323425, 0.094003386795520782, -0.10132893919944763, -0.10136505216360092, -0.030570946633815765, 0.051756959408521652, -0.05807100236415863, -0.071339033544063568, -0.076306171715259552, -0.10347355902194977, 0.047938607633113861, -0.105490542948246, 0.007745867595076561, -0.014423823915421963, -0.089813128113746643, -0.090531036257743835, 0.10201103240251541, 0.059429004788398743, 0.10392100363969803, 0.099402345716953278, -0.043877553194761276, -0.06069820374250412, 0.10088123381137848, -0.077208608388900757, 0.086330853402614594, 0.068931601941585541, -0.005345973651856184, 0.087184451520442963, -0.050208788365125656, -0.082094989717006683, 0.10718298703432083, -0.091842755675315857, 0.11903857439756393, 0.032344460487365723, 0.10101820528507233, 0.071724459528923035, -7.2868693678174168e-05, 0.01719016395509243, -0.10854438692331314, -0.063942529261112213, 0.06309913843870163, -0.08585386723279953, 0.041750639677047729, 0.030939007177948952, -0.054330646991729736, -0.066062912344932556, -0.029093069955706596, -0.01512615941464901, 0.050503052771091461, 0.0067178411409258842, -0.022070718929171562, -0.028051884844899178, 0.1057741567492485, 0.014793547801673412, 0.0060187703929841518, 0.1160530149936676, 0.019091209396719933, -0.045579433441162109, 0.10214544832706451, 0.066205836832523346, -0.033929675817489624, -0.0052499081939458847, -0.014517386443912983, 0.024608109146356583, -0.063348136842250824, 0.079695925116539001, 0.0039297058247029781, -0.044900454580783844, -0.071062788367271423, -0.063006021082401276, -0.010100333951413631, 0.0031752681825309992, -0.069961771368980408, -0.10381140559911728, -0.10356455296278, -0.040356401354074478, -0.092002615332603455, 0.088076464831829071, 0.022543611004948616, -0.020996784791350365, -0.061656869947910309, -0.080829128623008728, -0.023237530142068863, -0.088384725153446198, -0.021271983161568642, -0.012053905054926872, -0.042180981487035751, 0.064996883273124695, -0.04972294345498085, 0.12321509420871735, -0.044592678546905518, 0.00962052121758461, 0.053264167159795761, 0.013076839968562126, -0.10909716784954071, 0.045995049178600311, 0.0060930759645998478, 0.052863162010908127, -0.011228938587009907, -0.039793159812688828, -0.00374418287537992, 0.033508889377117157, 0.1107814610004425, 0.10331515222787857, -0.10213241726160049, -0.0078096729703247547, 
  0.029042107984423637, -0.071764186024665833, -0.059291206300258636, 0.092505328357219696, -0.014768310822546482, 0.054657880216836929, 0.10422344505786896, -0.069504246115684509, -0.034042861312627792, -0.085902146995067596, 0.010106730274856091, 0.076580606400966644, -0.028415950015187263, -0.059258397668600082, -0.058595728129148483, -0.051387656480073929, -0.11594411730766296, 0.0294664166867733, 0.0026923585683107376, 0.010426243767142296, -0.049155082553625107, 0.040714152157306671, -0.059713169932365417, 0.060505349189043045, -0.086814090609550476, 0.064347311854362488, 0.08028595894575119, 0.092744097113609314, -0.00035882496740669012, 0.05798252671957016, -0.078149475157260895, 0.063884876668453217, -0.035335838794708252, -0.059646114706993103, -0.023951342329382896, -0.095313191413879395, -0.012719296850264072, 0.054247837513685226, 0.031083198264241219, -0.021934470161795616, 0.10239434987306595, 0.060197487473487854, 0.10311561822891235, -0.10868967324495316, -0.040639705955982208, 0.05470622330904007, -0.018281759694218636, 0.084845513105392456, 0.034233428537845612, 0.067679189145565033, -0.051764216274023056, 0.014140323735773563, -0.013275843113660812, 0.00089400983415544033, 0.008337847888469696, 0.049630813300609589, 0.097180791199207306, 0.061227407306432724, -0.04173608124256134, -0.061915852129459381, -0.019420474767684937, 0.0082116099074482918, -0.090296007692813873, -0.014798359945416451, -0.10025126487016678, -0.071793921291828156, 0.046630214899778366, -0.011229490861296654, 0.06987328827381134, 0.08638327568769455, -0.082734309136867523, -0.028241701424121857, 0.10789572447538376, 0.11421538144350052, 0.026697391644120216, -0.035545539110898972, 0.067030303180217743, -0.068988405168056488, 0.10493633896112442, -0.039044070988893509, 0.061336785554885864, 0.082045167684555054, -0.10874553769826889, 0.034055180847644806, 0.10329990833997726, 0.061868693679571152, 0.003210871247574687, -0.037238113582134247, 0.089718908071517944, -0.094851382076740265, 0.042401876300573349, 0.0049560223706066608, 0.10978113859891891, -0.081779882311820984, 0.048525352030992508, 0.014846224337816238, 0.09311453253030777, -0.042029961943626404, -0.12849238514900208, -0.014529508538544178, -0.035624958574771881, -0.09943496435880661, 0.031735289841890335, 0.022206462919712067, -0.020516121760010719, -0.072293035686016083, -0.01107027567923069, -0.066416963934898376, 0.049018267542123795, 0.048505935817956924, -0.094780497252941132, 0.041962280869483948, -0.087191052734851837, 0.059008505195379257, 0.040509451180696487, 0.073935709893703461, -0.098587259650230408, 0.042646054178476334, 0.043386481702327728, -0.090925015509128571, -0.032874021679162979, -0.01762712374329567, 0.037123024463653564, 0.057765446603298187, -0.092327982187271118, 0.064986772835254669, 0.081328734755516052, -0.0079685142263770103, -0.085491262376308441, -0.025508543476462364, -0.10472875833511353, 0.029646201059222221, 0.094548486173152924, -0.010327616706490517, -0.087332867085933685, 0.022477731108665466, -0.11604730784893036, 0.014880458824336529, 0.052923273295164108, 0.014668895862996578, -0.064590603113174438, -0.0038348278030753136, 0.061372831463813782, -0.066634133458137512, -0.048895012587308884, 0.020762551575899124, 0.026522800326347351, 0.007971455343067646, 0.10796483606100082, 0.071012072265148163, 0.11668376624584198, -0.0024427634198218584, -0.061208520084619522, -0.0026309075765311718, -0.052523069083690643, 0.093372762203216553, -0.090454749763011932, -0.10836514085531235, 0.0080769024789333344, -0.022400328889489174, 0.024579685181379318, 0.038872011005878448, 0.023895412683486938, 0.092164993286132812, -0.018135493621230125, 0.075277745723724365, -0.024134401232004166, 0.022607570514082909, -0.11624708771705627, -0.078952521085739136, -0.030065439641475677, 0.059342045336961746, -0.073837898671627045, 0.0069878250360488892, -0.01665453240275383, -0.048067096620798111, 0.0011295571457594633, 0.090287275612354279, -0.079005993902683258, -0.02656468003988266, -0.034167248755693436, 0.05504196509718895, 0.0265076644718647, -0.081902921199798584, -0.11450443416833878, 0.067817151546478271, 0.033572308719158173, -0.11546178907155991, 0.088847845792770386, 0.061470143496990204, 0.088255748152732849, -0.043183431029319763, 0.11865843832492828, -0.0029588572215288877, -0.09590931236743927, -0.084173299372196198, 0.03989940881729126, -0.020392518490552902, -0.01620449498295784, -0.095625244081020355, -0.010157180950045586, 0.080822184681892395, -0.10543140769004822, 0.080118291079998016, -0.00052562740165740252, -0.051480058580636978, 0.080004163086414337, 0.0057945023290812969, -0.10723809897899628, 0.1097429022192955, -0.10039998590946198, -0.066823877394199371, -0.071006067097187042, 0.048186823725700378, 0.047193210572004318, -0.061770480126142502, -0.037484362721443176, -0.011101572774350643, 0.05649961531162262, -0.041435651481151581, -0.090658798813819885, -0.035916261374950409, -0.11239488422870636, -0.013007991015911102, -0.048569735139608383, -0.08918878436088562, 0.032584626227617264, -0.084462590515613556, 0.055102083832025528, -0.056154601275920868, -0.098442398011684418, -0.10960482805967331, -0.048809356987476349, -0.069110006093978882, -0.08771803230047226, 0.065506763756275177, 0.10354353487491608, 0.081478461623191833, 0.10607301443815231, 0.11551697552204132, 0.024431547150015831, -0.014323552139103413, 0.022672547027468681, -0.021803751587867737, -0.051461644470691681, 0.11279542744159698, 0.029266010969877243, 0.06948215514421463, 0.0061145941726863384, 0.10153143852949142, 0.039956144988536835, -0.036501135677099228, -0.082236573100090027, 0.046840809285640717, 0.092977620661258698, 0.041376333683729172, -0.097802400588989258, -0.058016248047351837, 0.068424291908740997, -0.020375031977891922, -0.00047109468141570687, 0.066369608044624329, 0.034074444323778152, -0.10762812942266464, 0.011650634929537773, 0.065989203751087189, -0.11100262403488159, 0.097738005220890045, 0.11013776808977127, -0.014895227737724781, 0.071785993874073029, -0.064562447369098663, 0.062604621052742004, -0.099353015422821045, -0.086211241781711578, 0.041787192225456238, 0.062161523848772049, 0.085966505110263824, 0.051372736692428589, -0.079193040728569031, 0.096270963549613953, -0.10674708336591721, -0.027468219399452209, -0.045151151716709137, 0.0021350686438381672, 0.0095302695408463478, 0.058444995433092117, 0.011201252229511738, -0.09031938761472702, 0.0023078217636793852, -0.051020342856645584, 0.0272249486297369, -0.017095007002353668, 0.082982063293457031, -0.018927840515971184, 0.11632272601127625, -0.10886190086603165, 0.018423693254590034, 0.0024900001008063555, -0.039024494588375092, -0.055939648300409317, -0.013275418430566788, 0.016189495101571083, 0.064807713031768799, -0.05653352290391922, -0.075665310025215149, 0.020114695653319359, 0.080735757946968079, -0.041342142969369888, -0.044662702828645706, 0.048976648598909378, -0.01920347660779953, -0.084231428802013397, 0.0092539219185709953, -0.034910671412944794, 0.00075014494359493256, 0.0056329718790948391, -0.070482432842254639, -0.03267274796962738, -0.025677690282464027, 0.045038525015115738, 0.046314511448144913, -0.092583358287811279, 0.10934548079967499, -0.11247871071100235, 0.050811499357223511, 0.056018490344285965, 0.0069118309766054153, 0.048539668321609497, -0.0090883616358041763, -0.0037387125194072723, 0.10018749535083771, -0.0078180860728025436, -0.071886412799358368, -0.089080221951007843, -0.056181631982326508, -0.026480913162231445, -0.08717682957649231, 0.090810723602771759, 0.041963379830121994, -0.044317033141851425, 0.092264071106910706, 0.032025497406721115, -0.026930259540677071, 0.080035030841827393, 0.098096638917922974, -0.10076308250427246, 0.04001210629940033, -0.023952770978212357, 0.069113187491893768, -0.063480377197265625, -0.11032155156135559, 0.059809837490320206, 0.041379932314157486, -0.019042542204260826, -0.071752369403839111, 0.069673173129558563, 0.083650112152099609, 0.0060737300664186478, -0.06927528977394104, 0.065961755812168121, -0.097032323479652405, 0.012002046220004559, 0.056181944906711578, 0.10448368638753891, -0.058588854968547821, 0.091282054781913757, -0.10571940988302231, -0.085305355489253998, 0.10715289413928986, 0.090689986944198608, -0.074494160711765289, 0.035296261310577393, 0.085410498082637787, -0.045987747609615326, 0.04832930862903595, 0.070270858705043793, -0.10537311434745789, 0.056506961584091187, 0.094616711139678955, -0.00050817197188735008, 0.095657259225845337, 0.10538636893033981, 0.0873526930809021, 0.066468648612499237, 0.013950149528682232, -0.070277854800224304, 0.02671130932867527, 0.083569079637527466, 0.070972397923469543, -0.10529167950153351, 0.069809868931770325, 0.0084852539002895355, -0.063945561647415161, 0.1003413200378418, -0.10221867263317108, -0.10126902163028717, 0.022361500188708305, 0.049597915261983871, -0.02662176638841629, 
  -0.0011571820359677076, 0.021490581333637238, 0.072607330977916718, 0.023803269490599632, 0.015829408541321754, 0.052520565688610077, 0.061712715774774551, 0.11004694551229477, -0.046405520290136337, -0.010025078430771828, 0.038463536649942398, 0.081847526133060455, 0.092496894299983978, -0.10010309517383575, 0.073776803910732269, 0.085012845695018768, 0.026607882231473923, 0.017638988792896271, 0.034629307687282562, 0.066848523914813995, -0.006623425055295229, -0.1118626669049263, 0.050479292869567871, 0.027075342833995819, -0.10074317455291748, -0.087991520762443542, 0.018615270033478737, -0.038058251142501831, 0.067543976008892059, 0.070047266781330109, -0.04146183654665947, 0.066596142947673798, -0.077620141208171844, -0.056173589080572128, 0.10465139150619507, -0.095337502658367157, -0.028154324740171432, -0.056381192058324814, -0.0065379408188164234, 0.070707328617572784, 0.098978511989116669, 0.035822015255689621, 0.070100337266921997, -0.090324945747852325, 0.081203684210777283, -0.065034829080104828, 0.056495305150747299, -0.091089233756065369, 0.11061419546604156, 0.067486025393009186, -0.0056263003498315811, -0.10222913324832916, -0.019962074235081673, 0.10637159645557404, 0.099656142294406891, 0.02884497307240963, 0.091843128204345703, 0.066741637885570526, 0.020107178017497063, 0.10787392407655716, 0.0041393004357814789, -0.12107173353433609, 0.071421749889850616, -0.014475868083536625, 0.097985081374645233, -0.020738568156957626, -0.094227582216262817, -0.018603194504976273, 9.4815062766429037e-05, 0.078154169023036957, 0.02689804695546627, 0.079557240009307861, -0.076785854995250702, -0.05600912868976593, 0.1122710332274437, 0.034457426518201828, 0.011500977911055088, 0.0028680034447461367, 0.052822712808847427, -0.081774227321147919, 0.011026978492736816, -0.0085412431508302689, -0.018347188830375671, -0.056499186903238297, 0.10923603922128677, -0.053254466503858566, -0.027743443846702576, -0.063386790454387665, 0.0045514246448874474, 0.10239410400390625, -0.0368637815117836, -0.11689791828393936, 0.058414563536643982, -0.04880208894610405, 0.036638069897890091, 0.0011460749665275216, -0.028060462325811386, 0.015885418280959129, -0.082948081195354462, -0.038182344287633896, 0.08086683601140976, 0.04245704784989357, 0.056650381535291672, 0.10346731543540955, -0.084954559803009033, -0.032973211258649826, 0.10793062299489975, 0.017190335318446159, 0.065139539539813995, 0.098242141306400299, 0.093451365828514099, -0.077914081513881683, -0.075761497020721436, 0.075848355889320374, 0.072839841246604919, 0.021441737189888954, 0.022281426936388016, 0.10010786354541779, -0.0084573272615671158, -0.078736357390880585, -0.059166189283132553, -0.10583207756280899, -0.085087724030017853, 0.11049290746450424, -0.094542980194091797, -0.10624907165765762, -0.10631531476974487, -0.053198728710412979, -0.0027065800968557596, 0.0087997661903500557, 0.09678349643945694, -0.059041313827037811, -0.036724507808685303, -0.092104725539684296, -0.0070933257229626179, -0.074596099555492401, 0.017055675387382507, 0.038795512169599533, 0.049735557287931442, -0.039799518883228302, 0.089310877025127411, 0.033227685838937759, 0.00036452338099479675, 0.078597851097583771, -0.028868246823549271, -0.083538658916950226, 0.091999918222427368, 0.070047348737716675, -0.10214483737945557, 0.04456130787730217, -0.012673253193497658, 0.058162663131952286, 0.073129080235958099, -0.023186242207884789, -0.072893679141998291, -0.019981982186436653, -0.085270345211029053, 0.026293009519577026, 0.062084369361400604, 0.054105214774608612, -0.030288469046354294, 0.036136407405138016, -0.050742775201797485, 0.10341692715883255, -0.060487668961286545, 0.003775585675612092, 0.017003500834107399, -0.017676318064332008, -0.063025213778018951, 0.04331270232796669, 0.04007754847407341, -0.0046550175175070763, -0.011292541399598122, 0.028397016227245331, 0.088283710181713104, 0.068110167980194092, 0.10598699003458023, -0.076112367212772369, 0.025694705545902252, -0.069111429154872894, 0.0046870103105902672, 0.064849421381950378, 0.01073706429451704, -0.055860795080661774, -0.041230779141187668, 0.012605668045580387, -0.004205784760415554, -0.07985398918390274, 0.083574377000331879, -0.062619030475616455, 0.047152981162071228, 0.027098949998617172, -0.088066227734088898, -0.086947686970233917, -0.048835072666406631, -0.088488094508647919, 0.11349322646856308, 0.10494685173034668, -0.020429383963346481, 0.088845014572143555, -0.051138821989297867, 0.085469715297222137, -0.07670900970697403, -0.029989678412675858, -1.3478291293722577e-05, 0.0042798989452421665, 0.10245415568351746, 0.095277898013591766, 0.039243124425411224, 0.023340355604887009, 0.10169500112533569, -0.11637577414512634, 0.044698543846607208, 0.016878688707947731, 0.10786709189414978, 0.014191302470862865, -0.017089959233999252, -0.020497120916843414, -0.077068880200386047, 0.07039845734834671, -0.034923482686281204, -0.081112921237945557, 0.033906381577253342, -0.070300385355949402, 0.10807047039270401, -0.074659109115600586, 0.0039982837624847889, 0.070696674287319183, 0.07771340012550354, 0.050191193819046021, -0.10497991740703583, 0.015172874554991722, -0.12030570954084396, 0.1090264692902565, -0.11948523670434952, 0.056545089930295944, 0.045261245220899582, 0.10834623873233795, 0.10363413393497467, 0.08140217512845993, 0.076699480414390564, -0.10770875960588455, 0.017676439136266708, -0.020707130432128906, 0.061384029686450958, -0.0083993887528777122, 0.072412885725498199, -0.074526391923427582, 0.0091279419139027596, 0.10734665393829346, 0.053933084011077881, 0.0066400491632521152, -0.034880936145782471, 0.0031398569699376822, -0.089486442506313324, -0.021593974903225899, 0.023296080529689789, 0.020066622644662857, 0.024604203179478645, 0.018945386633276939, -0.056488197296857834, -0.030069939792156219, -0.021381175145506859, 0.054034322500228882, -0.093896485865116119, 0.088124118745326996, -0.050810780376195908, -0.036284841597080231, 0.032364096492528915, 0.014955709688365459, -0.01535977516323328, -0.017742672935128212, -0.03580097109079361, -0.025102635845541954, 0.040149405598640442, 0.018081557005643845, 0.061208859086036682, 0.045370470732450485, -0.072761416435241699, 0.053643148392438889, 0.071040965616703033, -0.057307470589876175, 0.058467105031013489, -0.027997436001896858, 0.11017262935638428, 0.033612567931413651, 0.017742104828357697, 0.06072993203997612, -0.08202005922794342, 0.0019444621866568923, 0.083413511514663696, -0.062019839882850647, -0.077809348702430725, 0.090694800019264221, -0.025363003835082054, 0.020024480298161507, -0.037674553692340851, -0.017241489142179489, 0.087826602160930634, -0.092397846281528473, 0.020737195387482643, -0.066614724695682526, -0.033968068659305573, -0.094428747892379761, -0.035357031971216202, -0.071662649512290955, -0.095558367669582367, -0.096679553389549255, 0.042293541133403778, -0.056452367454767227, 0.0062387315556406975, 0.05151936411857605, 0.074440084397792816, 0.0052226530387997627, 0.022077921777963638, -0.018850589171051979, -0.00094645714852958918, -0.1010158583521843, 0.11074815690517426, 0.022428097203373909, -0.091926723718643188, 0.079548157751560211, 0.00074025936191901565, 0.11071665585041046, -0.015114180743694305, 0.0023427014239132404, -0.070827610790729523, -0.065032325685024261, 0.073285721242427826, -0.05597589910030365, -0.034353718161582947, 0.095157317817211151, 0.06771097332239151, 0.029600087553262711, 0.016335071995854378, -0.075031109154224396, -0.04719262570142746, -0.057777088135480881, 0.06119677796959877, 0.0099418200552463531, -0.08522014319896698, -0.11597014218568802, 0.043814092874526978, 0.096345856785774231, 0.09307185560464859, -0.05311807245016098, 0.11653175204992294, -0.068385161459445953, 0.021621977910399437, 0.041952308267354965, 0.066437080502510071, 0.043958950787782669, -0.065985165536403656, 0.058664746582508087, 0.090741395950317383, -0.10751614719629288, -0.09689754992723465, -0.00087672530207782984, 0.079828172922134399, 0.09854542464017868, -0.020996013656258583, 0.018331408500671387, 0.10546724498271942, 0.00088379695080220699, 0.055445242673158646, 0.069085933268070221, 0.040242739021778107, 0.0012313567567616701, 0.022857377305626869, 0.063604287803173065, -0.047823619097471237, -0.081780463457107544, 0.064375564455986023, 0.030007548630237579, 0.051018912345170975, 0.043894879519939423, 0.024237539619207382, 0.037879250943660736, -0.025935603305697441, -0.031830016523599625, 0.056027024984359741, 0.034870967268943787, 0.034794881939888, 0.10769454389810562, -0.017237642779946327, -0.037814486771821976, -0.09294668585062027, -0.081048436462879181, 0.094307176768779755, -0.076538264751434326, -0.080226659774780273, -0.085504606366157532, -0.107486791908741, 0.088111422955989838, -0.095669634640216827, 0.10844873636960983, -0.063620962202548981, -0.067537806928157806, 0.012649009935557842, 0.051220029592514038, 
